http://dbpedia.org/resource/Gosport_Borough_F.C. -0.8294057 0.52069944 -0.4178971 0.26989272 0.4350439 -0.24652168 0.068239845 -0.24848394 0.55377376 0.11987081 -0.17981492 -0.26018828 0.564434 0.11799511 -0.5510242 -0.79092515 0.20962882 1.1335415 1.4808756 -0.4016231 0.71050173 0.57328403 0.0334637 0.2985417 0.5868924 0.2098971 -0.18945292 0.2750284 -0.4978271 1.4457887 0.14426321 -0.244724 -0.24052945 -0.47448447 0.6034812 -0.43176177 -0.07661827 0.16087258 -0.0556563 1.0070583 -0.3086857 -0.1529887 -0.7965315 -0.13704637 -0.6367363 0.015907332 -0.7428555 6.425461e-05 -0.28365833 0.16478392 0.18256167 -0.4950251 -0.07890913 0.49443436 0.17716485 0.91058797 -0.31332088 0.29432452 -0.10982294 0.07734101 -0.34299543 -0.71878743 -0.7579643 -0.30160105 0.82882833 0.06269746 -1.434728 -0.541837 0.5382378 0.83077985 -1.5002767 -0.80002415 -0.07355559 -0.94162256 -0.33336776 -0.35014567 0.6461986 -0.13305755 -0.09804754 0.3003567 -0.10674054 -0.5269377 0.62756664 0.116601 -0.17911075 0.4335363 -0.17406224 -0.23777167 -0.78005445 -0.5489846 -0.061732523 -1.0044727 -0.23228654 -0.98577017 -0.108456716 1.1911678 0.09098095 0.38929975 0.12595423 -0.9980522 -0.10061225 0.05071509 -1.1305361 -0.62564725 0.8038017 -0.028795121 0.67515284 -0.6167884 2.0730505 0.1337001 0.30497268 0.08962687 -0.110516995 -0.70384645 0.6923125 0.24145873 1.1223326 0.019066574 0.55840445 0.5385574 -0.6789755 0.6504553 1.1509607 0.60953826 0.2143639 0.88270915 0.25903884 0.11480827 0.42757025 0.13975044 0.087762326 -0.008319826 0.3574691 1.3061179 0.3776295 0.08925481 0.7852765 0.8014476 -0.6510324 0.44734356 0.325261 -0.5275474 -1.0921577 -0.6101358 -1.3629067 0.7770061 -0.6588756 0.84502584 0.21403915 0.9037204 0.060038052 -0.08063655 0.22247015 0.60124856 0.07977719 -0.36044723 -0.11976436 0.5104918 -0.6026201 0.014605414 -0.7360672 0.6015742 0.8644583 -1.0275261 0.12454201 0.45429087 0.017991832 0.48779967 0.14099732 -0.60364056 0.64058924 -0.8432396 0.2826104 -0.17518665 0.32066774 0.10183984 0.4368938 -0.75083464 -0.93210036 -0.20339154 0.10647052 0.055031426 0.04818071 0.3725298 0.23961638 -0.3706291 -0.3218546 0.47300276 -0.06670592 0.499693 1.1333059 -0.1470674 -0.09300423 0.34642136 0.3785087 -1.287519 -1.021097 -0.42118153 -0.91678077 -0.13534704 
http://dbpedia.org/property/name -0.067390755 0.44904262 -0.78413445 0.15780881 0.0024662782 0.08541805 -0.9487982 -0.35629305 0.01991067 0.56405896 0.5860381 -0.53711873 0.18179455 0.8712896 -0.38938072 -0.27967313 0.546784 0.47126213 0.32775566 1.2770452 -0.05679265 1.2822095 0.44949356 0.47549453 0.4992772 0.6987166 0.09005315 0.43237618 0.68851364 0.090458 1.1455284 -0.6655057 -0.28197414 0.6983102 -0.19912688 -0.23296534 -0.007058111 0.5091174 -0.33980957 0.4142346 0.44484535 0.61538786 -0.59942 -0.023111532 0.15177073 -0.9626387 -1.0755581 -0.08171696 -0.15149175 0.191687 -0.26696852 0.119709566 -0.33570293 -0.36730522 -0.3770461 -1.057464 0.6750527 0.44429475 -0.35752168 -0.48954552 -0.79062974 -0.18156943 -0.26267222 0.5855354 0.78274757 -0.8458653 -0.005687143 -0.6848728 0.5464317 -0.28270602 0.28276733 0.76419854 0.6791554 -0.04894802 -0.3126094 1.0123986 0.12764324 0.02932078 0.19536161 -0.27198768 0.035421178 -0.27665856 -0.27258575 0.8547495 0.49897775 0.68505263 -0.6023589 -0.07617708 0.07798749 0.5321953 -0.54309666 -1.0023102 0.36615008 1.3135437 -1.1428604 -0.53392625 -0.4703581 -0.33214214 0.2126649 -0.31181258 0.7558512 -0.32541737 0.534977 0.3823928 -0.11579007 0.43773854 0.49255544 0.005948735 0.18828487 0.40407437 0.023193132 0.05355122 -0.1611857 -0.060309105 1.2375325 -0.66533154 0.17535315 0.52899116 0.6322628 0.9843417 0.6887245 0.27748778 0.4080698 -0.2838047 -0.79617375 -0.7105036 0.65519214 0.6431538 -0.8950658 -0.5440215 0.12602365 0.10612956 0.7058799 0.13533571 0.26244906 0.5220351 -0.051469184 0.2822079 -0.97823936 0.018302802 0.33269298 0.37621224 0.25590447 -0.88366187 -0.48425633 0.7783404 -0.596007 -0.71025413 0.12231143 -0.72809035 -0.43190977 -0.036020603 -0.53675324 0.12973818 -0.7184573 0.705913 1.0531136 -0.20673014 0.20262475 0.31528044 0.3092452 -0.2550831 -0.52811867 -0.04228448 0.18952286 0.40905774 0.47422493 0.0753535 -0.05532277 -1.2064136 -0.09589592 -0.05179501 -0.42908806 -0.26093045 0.10660454 0.20710932 0.45095924 -0.19036223 0.007980932 0.04892845 -0.5463392 0.056404732 0.122595765 0.7631188 0.32891107 -1.2547814 -0.077767506 0.663266 0.11110563 0.2613695 0.36507553 -0.3206945 -0.9245588 0.09470534 0.52161217 -0.7956058 -0.14837797 0.0036346605 -0.95072 1.1069627 
http://dbpedia.org/resource/Jordan_Rose -0.65946126 0.631347 0.25049418 0.6819616 0.27531853 -0.17422767 -0.36098936 -0.047334667 0.3477415 0.6311018 -0.5329428 -0.37375155 0.97566384 0.23057504 -0.273788 -0.79159707 0.30944657 0.94018805 1.3169197 0.28156897 0.6437624 0.34101182 0.6675422 -0.10193385 0.7683741 0.81635904 -0.08021945 0.35341564 -0.36411783 0.9337667 0.115636066 -0.40692782 0.20943622 -0.11756425 -0.15178756 -0.477849 -0.6136509 0.16983141 -0.00887777 0.8752571 -0.2618353 0.20625219 -1.2522403 -0.71494246 -0.48487282 0.28560555 -0.9892437 0.08794396 -0.12033248 0.27942243 0.15203583 -0.9302771 -0.18586585 0.33250743 0.15755862 0.2967214 0.05776428 0.122521035 -0.2996978 0.14847289 -0.21623018 -0.47588438 -0.8049473 -0.52454644 1.6571649 -0.21898586 -1.0674729 -0.78081816 0.23687774 0.42833343 -0.7004316 -0.4563401 -0.6132794 -0.5091058 0.38111317 -0.8594616 -0.011506183 -0.32281032 -0.054220174 -0.39086112 -0.2728772 -0.26236087 -0.9992579 -0.22618349 -0.24513581 0.3733014 0.22527486 -0.35568213 -0.19152576 -0.15397683 -0.5220081 -1.1841964 0.0010581731 -0.8635426 -0.25893947 0.81606275 0.19588326 0.8196443 -0.1682594 -1.1651121 0.24370432 -0.33867592 0.012200049 0.011392759 0.07576884 0.09204039 0.90148497 -0.31859478 1.1102772 0.34800437 0.1912925 -0.08843256 -0.3194082 -0.8324733 0.44417968 -0.26979393 1.0072384 -0.07528926 0.03484786 0.41227192 -1.097846 0.68375254 0.7434476 0.6535972 0.4234316 0.6298981 0.5078633 0.52254015 -0.001548107 -0.4988132 -0.72254246 0.20738296 -0.42448124 0.75375915 0.5553021 -0.017003972 0.6384872 0.4853465 -0.99102306 -0.28710318 0.69769377 -0.7212916 -0.78571975 -0.5440067 -0.55417454 0.5142511 -0.043346684 1.060896 0.011922824 0.27593607 -0.045926828 -0.24243397 -0.24804729 0.596082 0.15831847 0.045999818 -0.41555226 -0.32707164 -0.5758219 0.0052237394 -0.8602122 -0.10786717 0.29850298 -0.41164827 -0.60074717 -0.4015128 0.26663357 0.6547431 -0.086503424 0.32316655 0.79235417 -0.81659555 -0.1006902 0.10823117 0.5345917 0.066885084 0.2695597 0.075748004 -0.6365139 -0.5513934 0.0071123852 -0.25700387 -0.5617041 -0.084891036 -0.13941887 -0.85644317 -0.034688033 0.059072804 0.081216335 0.25031647 1.5509588 -0.6562226 -0.29399085 0.9558313 -0.038580332 -1.3321213 -0.68379164 -0.027339961 -1.1088482 0.09872665 
http://www.w3.org/1999/02/22-rdf-syntax-ns#type -0.10538569 0.01654556 -0.5514185 -0.33300367 0.11471302 0.319234 -0.7010863 -0.73380446 0.12380088 -0.09431129 0.5228701 0.12311972 -0.029404486 -0.08270571 -0.379702 0.29759514 0.08571286 0.5099542 -0.069773294 0.75175357 0.15986817 0.36341885 0.55269766 0.5893111 0.10219862 -0.052276686 0.078570426 0.25421268 0.20060383 0.06029962 0.60809475 0.22945961 0.055701703 -0.149679 -0.005069107 0.33201772 0.4886328 -0.106094375 -0.010291334 0.13828996 0.2571904 0.68497103 -0.3303559 -0.6473867 0.108675815 -0.6760231 -0.7412451 0.34761652 -0.06583713 0.5265706 0.49798363 0.14588349 -0.07559516 -0.3776132 -0.45640054 0.14193265 0.32717702 0.38839385 0.26542896 0.40558758 -0.42747322 -0.12981965 -0.18145719 0.23659578 0.8696239 0.08479879 0.40069607 -0.5870406 0.8163477 0.5747136 0.3488792 0.2962214 0.4862588 -0.17117587 -0.20107116 0.32468238 0.119138904 0.40851 0.19930275 -0.44530523 0.5155962 -0.67082185 -0.42955393 0.045384582 0.06168986 -0.0045412662 0.56690985 0.21711905 -0.24651183 0.18377033 -0.23022091 -0.5837292 0.017683975 0.4672538 -0.514227 0.26200902 -0.37787688 -0.34225792 -0.041194 -0.20814703 0.00059751276 0.18795289 -0.36068448 0.12862565 -0.36775142 0.7626314 -0.3360947 0.46892306 0.21978289 0.42637098 0.14710294 0.0020303263 -0.016122987 0.6874134 0.442197 -0.056516737 -0.29164714 0.537273 0.08965994 0.4550336 0.18916012 0.37764692 0.14013937 0.53715104 -0.68205416 -0.43747717 0.5538872 0.34690452 0.16943863 0.031159492 0.23698136 -0.3731177 -0.2048279 0.59044516 0.31487486 0.17819278 0.03363058 0.69069177 -0.5635892 -0.32158208 0.42407832 -0.02012637 0.02010196 -0.46788943 0.20434363 0.87367797 -0.118668765 0.0026471943 -0.34295884 -0.13271044 -0.03847104 0.1941975 -0.88055736 0.38052073 -0.42052937 0.32888153 0.25061977 0.20860663 0.017224504 -0.20937297 0.5743531 -0.46073648 -0.04261092 0.1897393 0.3695382 -0.11326502 -0.12198911 0.111160375 -0.013915474 -0.28782016 -0.4793328 0.6499145 0.0012484075 0.67136556 -0.28556395 0.000620535 0.36508587 -0.8252638 0.0126803955 0.41178322 -0.7272566 0.50795263 -0.25361693 0.76547873 -0.26396355 -0.7181639 0.1338959 0.036691144 0.16296981 0.44470298 -0.22155246 -0.15605807 -0.48448658 -0.21563238 0.36410263 -0.2606387 -0.004090042 0.64119667 -0.5370149 0.86628884 
http://www.w3.org/2002/07/owl#Thing 0.38371235 0.13723476 -0.6513826 -0.7111264 0.38339114 -0.36890453 -0.5000216 0.024228182 0.11980208 0.06126491 0.8872334 0.12860647 0.0145751 -0.50218076 -0.5227278 0.24544021 0.29031977 0.34925947 -0.12504874 0.85298556 0.24620232 0.38870236 0.24757025 0.5117846 -0.60446924 0.3157898 -0.6061273 0.27923048 -0.09515308 -0.41508073 0.4469274 -0.4481344 0.18624246 -0.6615506 0.38736424 0.040259168 0.032823753 -0.32004386 0.21091424 0.08911706 -0.14161503 1.0182602 -0.127084 0.26477256 -0.12122557 -0.6892998 -0.5347913 0.25125828 -0.13731115 0.21193956 0.48765424 0.28694552 0.26038685 -0.5063793 -0.017565312 0.85835373 -0.20853454 0.660036 -0.40459734 0.3243136 -0.16131721 -0.33962318 -0.3055536 -0.8028115 0.9190006 0.17456189 0.27384144 -0.38475746 0.8854951 0.59634155 0.601753 0.3122926 0.6200259 0.5606396 -0.34580088 0.12390487 -0.23754582 0.27353418 0.065562785 -0.25756696 0.02689719 -0.48198178 -0.20938227 0.22946918 -0.09366428 0.13700205 0.89000624 0.066609256 -0.4266908 -0.3213316 -0.6027651 -0.54409146 0.013978952 -0.13617535 -0.12927297 0.19071777 0.35968652 0.12623501 0.41970834 -0.053913824 0.033070143 0.07456385 0.3150945 -0.029994994 0.1388693 -0.17202736 -0.29062873 0.063201144 0.25033405 0.5619419 0.21184404 0.16588312 0.24782796 0.20591232 0.26883876 0.535924 -0.06479278 -0.08715574 0.20738849 0.22211872 0.3680375 0.8818987 0.17947647 0.34612414 -0.77099913 -0.85396665 0.7753265 0.30283046 -0.162147 -0.30822185 -0.012892354 0.38259563 -0.18199289 0.17835867 0.34521958 0.23889393 0.5961824 0.46245027 -0.21026257 -0.7403183 -0.0074812765 -0.58983845 0.67289174 0.21546032 0.14123183 0.669034 -0.43313834 0.5528786 -0.18336818 0.058376245 0.830333 0.41250545 -0.20187852 -0.04416793 -0.29883957 -0.14101572 0.25894293 -0.16556256 0.36676797 -0.22315328 0.21680944 -0.22091562 0.16341546 0.01595754 -0.1617367 -0.781694 -0.15401782 -0.2856271 -0.18806918 -0.08776985 -1.0157237 0.18763727 0.71895033 0.7300747 -0.17601319 -0.081865184 0.5015818 -0.01601309 0.11082857 0.6308361 -0.60394204 0.24221198 -0.06849245 0.86592644 0.037707563 -0.42676902 -0.07976333 -0.17322661 0.4974335 -0.368212 -0.005699256 0.48106998 -0.27634007 -0.3267281 0.17059308 -0.17649178 -0.56004196 0.14024049 -0.2789475 0.2847566 
http://dbpedia.org/resource/Matthew_Casey_(footballer) -0.8540417 0.5350117 -0.08264033 0.8007565 0.14890487 -0.055308852 -0.15176441 0.11463198 0.48130658 0.36422625 0.023214983 -0.049851414 0.6162213 0.123729214 -0.14705342 -0.07891912 0.16702579 0.6924483 0.85420424 0.3676916 0.32648394 0.72525746 0.16925943 -0.038535256 0.47832105 0.5655179 -0.27408952 0.10759492 -0.23747514 0.9773139 0.30298242 -0.37841323 0.17559974 -0.037608307 0.10474309 -0.34861183 0.0130613055 0.6115059 -0.117081046 0.9091366 -0.43151402 0.3220724 -0.8691756 -0.118108876 -0.15722166 0.31367573 -0.7256006 -0.074014135 -0.28662747 -0.27590626 0.062190518 -0.63439256 0.118113495 0.19728121 -0.013793078 0.6024689 -0.16507882 0.23398723 -0.47238335 0.25790635 -0.08069353 -0.28571132 -0.8726488 -0.20970246 1.0287477 -0.10106451 -0.93875706 -0.6005302 0.64220035 0.68000585 -1.1145899 -0.30801535 -0.44385454 -0.4876777 0.45625776 -0.3032905 0.33422086 -0.25643337 -0.12835845 -0.09068524 0.12440233 -0.43661782 0.24134658 0.2295832 0.35078052 1.082002 0.039296616 -0.14573184 -0.53806597 -0.7536496 -0.29375976 -0.61571294 0.042940013 -0.9631994 -0.47532767 1.0610253 0.364879 0.70988375 0.0129876165 -0.7839022 0.02377727 0.04627048 -0.23049879 -0.76176566 0.076161444 0.25807077 0.38800028 -0.11638681 1.4453421 0.03671579 -0.079257816 -0.06787911 -0.19336542 -0.5594688 0.6673447 -0.4140267 0.64980716 0.06545688 -0.20076466 0.52851623 -1.0906713 0.0025951467 0.73517317 0.7536435 -0.27173647 0.3324663 0.19900358 0.06191949 0.15278806 -0.27261984 -0.3339013 -0.22417405 0.019471848 0.06540575 0.7283293 0.020400159 0.37931526 0.697023 -0.31503054 0.17014854 0.37565628 -0.45351943 -1.0095745 -0.14120336 -0.5456448 0.40980282 -0.20932786 0.4957158 -0.045647178 0.45681658 0.018997498 0.58448637 0.24530625 0.63252455 0.5011306 0.07316136 0.1363025 0.60966873 -0.39522785 0.34854043 -0.32313582 0.37564152 0.74907833 -0.74939466 -0.50928634 0.15578873 -0.2657716 -0.14694412 -0.28935054 0.15494739 0.7486685 -0.1525866 0.49890673 0.15219866 -0.007911006 0.21292526 0.99325305 -0.42211494 -0.9661615 0.30943987 -0.7408247 -0.14251442 0.08749278 0.1405817 0.16835299 -0.09927096 -0.17328411 0.38364547 0.3522157 0.6700456 0.7590597 0.058470823 -0.17542394 -0.039814252 0.2932112 -0.9237278 -0.7725109 -0.042752918 -1.0062138 -0.106812276 
http://dbpedia.org/ontology/Athlete -0.39259738 -0.14169464 -0.40871456 -0.5822153 0.03575177 -0.1572178 -0.8945025 -0.28949443 -0.16743807 -0.39687204 0.58233804 -0.6993937 0.3297422 0.26238778 -0.44586745 -0.3188912 -0.0102090165 0.105496325 0.51790905 0.67925465 0.5106174 0.31670347 0.21273842 0.09617721 -0.030475464 0.9750081 -0.354312 1.1166087 -0.16755573 -0.64688915 0.36846957 0.2755042 -0.062225822 0.16894747 0.10052118 -0.07108261 0.68042934 0.23687276 0.18493584 0.8926251 0.53347266 0.69485474 -0.42696348 0.3444003 0.24959435 -0.2142524 -0.59842986 -1.0338966 -0.52671933 0.016977817 -0.041711636 -0.07952239 0.3672195 0.11731868 -0.27423587 -0.14717655 0.33023807 0.31143644 -0.10993012 0.2202507 0.3005323 -0.18296072 -0.44024795 -0.61811656 0.038149614 -0.09616419 0.12544523 0.06926947 1.3633746 -0.3319215 0.6466751 0.9345062 0.7438322 0.44974375 -0.6418879 0.14446278 -0.59200823 0.5126541 0.13077238 0.18937422 0.67114866 -0.006702474 0.34410602 0.4471648 0.53032357 0.3103057 0.25940678 0.53662634 -0.46685517 0.22186688 -0.4677245 -0.26618883 0.24786717 0.58413464 -0.48586553 -0.03268252 0.3264586 0.14499773 0.80809677 -0.565952 -0.72806543 1.0445083 0.039782584 -0.12441621 0.19092506 -0.269769 0.3392128 0.5491978 0.6155212 0.86593753 0.21717572 0.88689435 -0.03647153 -0.35902593 0.6729062 0.51329494 -0.05103133 0.6702188 0.84150815 0.21121003 1.0768535 0.6558682 0.21398067 -0.024993347 -0.5442968 -0.6631719 -0.06777805 0.49562484 0.1125788 -0.22860983 -0.05204449 -0.6703354 -0.12547202 -0.2654829 1.0604587 0.25223568 0.9947656 0.667898 -0.046622574 -0.95808434 0.5056875 -0.9004544 -0.05774916 0.34216914 -0.7361152 -0.47597456 -0.2465589 0.5952364 -0.025231725 0.030100647 0.6122066 0.2778618 0.0756889 0.30297405 -0.80985785 0.031279195 0.54322296 -0.28081694 1.0054598 -0.33460224 0.3060102 0.08044431 0.1680925 -0.17600426 -0.25973612 -0.21680246 -0.034349523 -0.5690798 0.4895596 -0.57440567 -0.85621935 -0.01635446 0.63733965 0.19689971 0.21568945 -0.1345507 0.24478783 -0.36728296 0.73127455 0.19460578 0.31139183 -0.33805665 0.37736836 0.13049899 0.4694088 0.07928996 0.12388047 0.75779605 0.2927888 0.3033535 0.3542094 -0.12036695 -0.024918552 0.34171632 0.153953 -0.23713422 -0.0672583 -0.16930921 -0.74765646 1.2120558 
http://dbpedia.org/property/manager -0.34357226 0.9783087 -0.8563631 0.33622998 -0.23516762 -0.08889825 0.14490141 -0.25305185 -0.135369 0.12823565 0.18500099 -0.3700417 1.10895 1.0833235 -0.34898433 0.3450471 0.3795619 0.5128736 0.64144903 1.4869713 -0.257193 0.8095718 0.33749345 0.49839646 0.40345916 1.2496557 0.3695831 0.29344708 0.81598985 0.43128142 1.3299112 -0.6593698 -0.45433444 0.56918126 -0.51604265 -0.49202105 -0.365834 0.5136813 -0.5027208 0.17604612 0.12692772 0.5748188 0.08361015 0.19355501 -0.08657427 -1.0405939 -0.7467843 0.37546948 -0.82989144 0.52314866 -0.774406 0.46303704 -0.6703029 -0.97500235 -0.7407337 -0.64606136 1.3346298 0.36960873 -0.6626363 -0.14327416 -0.9501735 -0.09305231 -0.5165571 0.61655223 1.3055993 -0.03963695 0.6214017 -0.6042506 0.32011774 -0.47895154 0.4564258 0.2578346 1.1109182 -0.07817449 -0.3823562 1.0667595 0.32345843 -0.21873479 0.16603152 -0.8307924 0.025572814 -0.29735333 -0.4992309 0.5183165 1.0111939 1.1696097 -0.8265185 -0.36706504 -0.12477082 0.15876415 -0.64985263 -1.1304905 0.12824714 0.9028687 -0.7572166 -1.2748985 -0.49142602 -0.20404013 0.4207021 -0.6726221 0.07255672 -0.87901324 1.1852251 0.2533591 -0.104738325 -0.2573697 0.8432351 -0.075984634 0.5053248 0.81708837 -0.30926928 0.5726046 -0.5372714 0.67660636 0.6133805 -0.6060558 0.32464525 -0.12045329 0.6067865 1.5233781 0.79207283 0.46086827 0.20842288 0.82473534 -0.9015337 -1.0348508 0.8315006 0.8713148 -0.90959483 -0.7917309 0.39851457 -0.06955075 0.89466625 0.15803732 0.19039775 0.7189563 0.2355177 0.81234 -1.1693414 -0.016320357 0.30915236 0.53528756 -0.15681195 -0.8115306 -0.55018306 0.77396685 -0.5239912 -0.6202384 0.5949956 -0.8869124 -0.2074991 -0.3187424 -0.23443933 0.10263439 -0.558308 0.6436797 0.79581636 -0.33030808 -0.33296585 0.12162788 0.111182556 -0.29545802 -0.23403095 0.06547459 0.74550927 -0.42218795 0.5726818 -0.23519191 0.0296362 -1.6778392 -0.5906814 -0.7355087 -0.44534355 -0.44688225 -0.050813735 0.446451 0.756006 -0.62758166 0.08062297 -1.1264415 -0.694133 -0.2602197 -0.3885297 0.14237297 0.38488215 -0.9907114 -0.24260111 0.37795812 0.08118946 0.089647755 0.053920407 -0.072882906 -1.0581108 -0.8625422 0.6444338 -1.0037223 0.22787392 0.3246536 -1.2085903 1.0915029 
http://dbpedia.org/resource/Shaun_Gale -1.1696864 0.5071321 0.056435365 0.9759627 0.23994493 -0.27837163 -0.2639076 -0.10810612 0.5102197 -0.3242927 -0.3934853 -0.17831592 0.86205095 -0.19507016 -0.7949728 -0.7582044 0.058832668 0.43401054 1.1358556 0.43581548 0.5284689 -0.16281827 0.5931724 0.29490831 0.2989211 0.34803724 -0.13995731 0.57360655 -0.32949978 1.1661129 0.096800745 -0.3508407 -0.30603024 -0.5560546 0.38609183 -0.18086345 0.15984747 0.4568356 -0.054949705 0.71245366 -0.90550584 0.10733975 -0.69848686 0.34279498 -0.16119441 -0.16149126 -0.7142956 -0.033874344 -0.34311292 -0.48002887 -0.64866835 -0.6005423 -0.32305655 0.30096924 -0.013588652 0.42478168 -0.0936434 0.15462899 0.08608311 0.08124465 -0.70357513 -0.3349942 -0.998288 -0.18385515 0.91920406 0.10118312 -1.2376286 -1.0485892 0.651542 0.43271047 -0.9241654 -0.3280224 -0.25779086 -0.61945534 0.31150737 0.52015215 0.18787014 -0.057660524 0.10536352 -0.3040956 -0.3973424 -0.13196833 0.16652416 0.42104495 0.20397869 1.1203393 -0.012455772 -0.080374114 -0.42632195 -0.9128538 0.011918436 -0.7143305 -0.31887993 -1.5646094 -0.87124074 0.9708236 0.01495018 1.3226228 -0.017987028 -0.6482064 -0.35119876 0.051457755 -0.74669194 -0.3766741 0.5550648 0.27134085 0.31981608 -0.6904475 1.6691774 -0.09978832 -0.17222267 0.09220217 -0.40497446 -0.49520448 0.71194255 -0.3801164 0.6235285 -0.28656515 0.52282083 0.5035486 -0.881255 0.3515175 1.1406543 0.27200413 -0.07005549 0.63974607 0.43346825 0.26345974 0.0016243578 -0.028554218 -0.117507875 0.34731248 0.101547964 0.25373915 0.57356673 -0.30995956 0.49635085 0.6453302 -0.11758982 1.0371825 0.55124295 -0.19223773 -1.3497189 -0.07960681 -0.8617396 1.4371455 -0.39369068 0.6821561 0.8100666 0.029726231 0.16142018 0.5571056 0.71704435 0.45113906 -0.052988727 -0.1655023 -0.34178123 0.4909699 -0.11978894 0.16826315 -0.58150107 0.46683058 0.8996037 -0.47955617 -0.13021189 -0.564141 -0.29157436 0.21505259 -0.29006606 -0.35353807 0.70746535 -0.48973423 0.94506174 -0.09607144 0.12385223 0.0863186 0.82973796 -0.4787584 -1.035667 -0.4491264 -0.049312003 0.29804015 -0.18799646 0.18233384 0.436745 -0.010446953 -0.6644293 0.830321 -0.06570407 0.12478571 0.72498715 0.23163325 -0.18579291 -0.17048779 0.1451204 -0.8958402 -0.6790803 0.00487605 -1.1990353 -0.17642006 
http://dbpedia.org/ontology/SportsManager -0.6230669 1.1927638 -0.8174391 -0.7582056 0.1323022 -0.11877953 -0.11153648 -0.9167103 -0.15740986 -0.6403959 0.4148027 -0.86871564 0.7226016 0.33144066 -0.35738495 0.6914589 0.2711315 0.55651325 0.7384517 1.0486935 0.49194026 0.4569783 -0.12791213 -0.09017087 0.00017083707 1.1131849 0.099480614 0.49605775 -0.4610407 0.0008669435 0.61128926 0.36483407 0.3398454 0.4924968 0.53712565 -0.3333623 0.48985538 0.19557816 0.7241237 0.60196203 -0.19091763 0.58803916 -0.15379795 0.5370007 -0.16930291 -0.17343323 -1.0699186 -0.4851727 -0.47546995 -0.1498642 -0.40845177 -0.09560455 -0.14033248 -0.12485317 -1.4305087 -0.44746426 0.36768585 0.28062442 -0.48303825 -0.38271987 -0.05933393 0.37968072 -0.59995097 -0.6589762 0.26046807 -0.5115152 0.40861684 0.06925477 1.2841328 0.12253763 1.1872379 0.06601866 0.50263816 0.12573965 -0.3627556 -0.06236035 -0.048718233 -0.098244466 -0.5933058 -0.43493542 1.0044676 -0.2097989 0.17914644 1.1060328 0.26527992 0.36305147 -0.0027814158 -0.14593942 -0.4315006 0.02589411 -0.20268442 -0.29423985 -0.102625884 0.7824458 -0.26538566 -0.13752805 0.2104658 0.21503529 0.39747977 -1.0083828 -0.99831206 0.2182493 0.3492297 0.37113696 -0.06810179 -1.0340198 0.99968714 -0.012423763 1.2176712 0.9163501 0.4657087 0.5248992 -0.5081398 0.3897121 0.75403374 -0.26665547 0.9209188 0.3827708 0.70939654 0.900525 0.9036793 1.2479651 -0.4416967 0.6430289 -1.0989429 -0.68271995 0.32683784 0.5620801 -0.004603986 -0.82403976 0.010905531 -0.35453203 0.17632033 -0.10518266 0.5460142 -0.19891573 1.7209814 1.0280422 0.083461605 -0.31467608 0.38196403 -0.16449285 0.03567136 0.2897844 -1.2855818 0.4593335 -0.22462636 1.0246372 0.26324904 0.067683846 1.2639081 0.599242 0.4453554 0.2222534 -0.35134715 -0.8089063 0.41019598 -0.6156313 1.0177798 -0.39741492 0.09144029 -0.6402926 -0.259431 0.14788684 0.13055605 -0.15156929 -0.16981831 0.13181159 0.115721725 -1.0924404 -0.64730334 -1.1769145 0.59374607 0.039978255 0.58856463 0.37295058 1.1858563 -0.36520576 -0.027637867 -0.45038208 0.050683986 0.0291198 0.051085696 -0.04528995 0.8754162 -0.32462248 0.015739154 0.15144597 -0.24893874 -0.05666831 -0.41391626 -0.9253196 0.35036275 -0.28904307 0.17288895 -0.42825654 -0.599408 -0.2425615 -0.9238373 0.8151849 
http://dbpedia.org/ontology/manager -0.41105074 0.8987859 -0.83475184 0.33683023 -0.31128398 0.030525034 0.12908582 -0.17959933 -0.21566041 0.05415321 0.1252526 -0.44587553 1.0230553 1.0155711 -0.36523938 0.3599445 0.31236053 0.39918113 0.6642868 1.5040153 -0.14116988 0.7110484 0.45353913 0.53056556 0.37998852 1.2619418 0.4430411 0.36369157 0.68880934 0.39889568 1.3809981 -0.5957443 -0.5009393 0.6443202 -0.39273155 -0.52720916 -0.28578198 0.47043395 -0.34913203 0.07493992 0.060109664 0.5320333 0.15003112 0.16545422 -0.22035584 -1.0317671 -0.7156151 0.35717833 -0.8046267 0.48273006 -0.6282961 0.3079653 -0.68946266 -0.8638407 -0.7698353 -0.6153451 1.2552189 0.38648382 -0.6596827 -0.114600234 -0.73838145 -0.08704477 -0.49057236 0.6394094 1.3078424 -0.1510548 0.57458895 -0.50703883 0.3402237 -0.26600686 0.5342052 0.24865636 1.0032383 -0.043546032 -0.33896077 0.9275242 0.38530934 -0.19762221 0.17040668 -0.794799 -0.076274276 -0.16451925 -0.36430544 0.5600397 0.87815976 1.0386006 -0.89331514 -0.29588702 -0.23118451 0.12943643 -0.49516147 -1.0844734 0.14561109 0.874242 -0.7549147 -1.2455553 -0.4425235 -0.36931407 0.3018717 -0.6587944 0.013308754 -0.8157863 1.1423689 0.36161256 -0.12913702 -0.3129293 0.80909353 -0.09388172 0.47983325 0.7815652 -0.19987246 0.53340095 -0.4725485 0.5342822 0.5353316 -0.5025757 0.42647576 -0.1451315 0.5086627 1.5127362 0.6446119 0.49426734 0.25498724 0.763142 -0.9911579 -0.93210864 0.7800505 0.63583744 -0.85395706 -0.8254651 0.47326574 0.05281391 1.0243504 0.21317546 0.10178831 0.68403023 0.28741705 0.77562904 -1.2123433 0.054706 0.37336504 0.43364745 -0.2743943 -0.82945436 -0.549484 0.83682543 -0.43894207 -0.5348349 0.5672079 -0.83385414 -0.052920207 -0.43303925 -0.12744421 0.08837098 -0.5124449 0.6816219 0.826315 -0.35256332 -0.35912466 0.11400041 0.022731606 -0.35050103 -0.41416603 0.043286987 0.8492317 -0.42191777 0.58993965 -0.25283024 0.053665355 -1.6159313 -0.61086565 -0.7336058 -0.38149595 -0.40962514 0.09148283 0.48895556 0.6342129 -0.64846516 0.029735083 -1.0370929 -0.5213673 -0.20034014 -0.3468474 -0.0019576908 0.643024 -1.0145763 -0.31406152 0.32866076 0.10127025 0.16848324 0.07611895 -0.23653431 -0.92113394 -0.7331153 0.72366244 -0.8885945 0.04417512 0.19454889 -1.1181217 1.0133915 
http://dbpedia.org/ontology/managerClub -0.38268873 0.73625463 -0.6992704 -0.09390236 0.016361866 -0.09141128 -0.26743442 -0.6653305 -0.4034572 0.16989748 0.38988498 -0.65134716 0.43561733 1.0085354 -0.39489314 0.90987146 0.3006134 0.46705687 0.6732664 1.0325369 -0.12720075 0.44960797 -0.017479947 0.30653635 0.6914338 0.89289755 0.42237884 -0.060747664 0.12242492 0.50238365 1.0591815 -0.3019661 0.3081761 0.57554287 0.2318931 -0.48750764 -0.30510437 0.84264547 0.05920149 0.27988964 -0.3206278 0.08863605 -0.25093883 -0.18244372 0.104891784 -0.7483462 -0.77256286 0.46579644 -0.6209871 0.10713422 -0.47537047 0.2709769 -0.83797705 -0.97493494 -1.2384686 -0.8829038 0.9483075 0.4950417 -0.27814683 -0.37462214 -0.62116176 0.2616195 -0.8031784 0.5075275 0.64964277 -0.1058054 0.40894556 -0.19188426 0.61163694 -0.13759542 0.61665165 0.16397241 0.45068493 -0.45267132 -0.22949049 0.6192763 0.19763333 -0.5923728 -0.4954572 -0.46710777 0.3925117 -0.14414395 -0.43533936 0.7457949 0.5229379 0.93567634 -0.05164602 -0.52712464 0.00039954815 0.119713575 -0.03589158 -0.87861526 0.20600688 1.2509087 -0.43175408 -0.8397358 -0.7077968 0.31054783 0.51163375 -0.5764798 -0.24978532 -0.5317181 0.992063 0.6375388 -0.10713349 -0.5653446 1.0458595 0.13270916 0.449579 0.43148768 0.21089382 0.3548134 -0.34328264 0.39097613 0.82294965 -1.2283865 0.70356095 0.35581934 0.662347 1.3225974 0.299256 0.85709786 0.40527877 0.13627352 -0.8926004 -0.4485632 0.90834564 0.85208523 -0.34056956 -1.0958167 0.095791444 0.26589093 0.73458695 0.49787655 -0.10360778 0.19742672 0.56374913 0.60015213 -0.89877796 0.21781683 0.16126089 0.56586176 0.39039356 -0.6961081 -0.53926104 0.8711411 -0.39398643 0.1118861 0.48547193 -0.39012697 -0.12959926 0.035942324 -0.008568363 0.011164177 -0.5340987 -0.60541683 0.50513893 -0.47455624 0.31636286 -0.10509412 0.04256817 -0.33868092 -1.0483398 0.12118183 0.38538787 0.06651388 -0.019609898 0.004507421 -0.0054214117 -1.616447 0.06490734 -0.25780237 -0.06684716 -0.6474529 0.022210134 0.28827763 1.0539751 -0.14800921 -0.15974504 -0.6967025 -0.49458563 0.3214399 -0.23831323 0.10237629 0.7958507 -0.36404496 -0.04600064 0.47211498 0.23087005 -0.3604605 -0.009564121 -0.6362076 -0.015464679 -0.18500264 0.36898017 -0.99890214 -0.13187538 0.27420926 -0.8256854 0.905182 
http://dbpedia.org/resource/Eastbourne_Borough_F.C. -1.1353656 0.044242945 -1.0229712 0.6972846 0.3703363 -0.45505708 -0.48363826 -0.6632212 0.45689857 -0.6930341 0.16967034 0.38792056 1.0137042 0.6270921 -0.48411283 -0.03599211 -1.0286198 0.91320556 0.904946 -0.46556604 0.6173175 0.62025553 0.55090135 1.0392768 0.52507526 -0.09498003 0.0027695615 0.8919577 0.26978698 0.4558807 0.09758499 0.0018856258 -0.2737413 -0.30497783 0.5409233 -0.21921068 0.31328404 0.068865046 -0.15335041 0.42485037 -0.13980398 0.46526963 -0.588157 0.28190267 0.279174 0.29343635 -0.59209085 0.97050667 -0.33621192 0.45198047 -0.40531653 -0.09674266 0.07073397 0.5072288 0.591102 0.3708666 0.38329762 0.4148457 -0.5059469 0.10304507 0.41103867 -0.71863973 -0.03468041 -0.46959022 0.9189654 -0.94288844 -1.231295 -0.11525667 1.1298282 0.5593429 -0.69112426 0.22360983 -0.29299006 -0.50650007 0.85580826 0.069602676 -0.3681071 0.059488483 0.13632672 -0.057608146 -0.19063851 0.14469303 0.29162183 0.9366657 -0.1479492 0.44222343 0.59376633 -0.07530981 0.30333164 -0.18623488 0.3804878 0.2443152 -0.26722077 0.25734693 -0.13956054 0.19077799 0.46994007 1.9106048 0.5302856 -0.09688857 -0.14665377 -1.0151784 0.06196077 -0.22488455 0.12882248 -0.35838792 0.5350488 -0.42435274 1.2567586 0.6572168 -0.24599826 0.58428144 -0.31220987 -0.3112672 0.6033108 -0.14744751 0.82500297 0.31887951 0.8809285 1.310825 -0.38901386 0.37213653 1.2684063 -0.15092221 0.5940246 0.7419565 0.42254853 0.5430827 0.08892715 0.47604415 -0.4545483 -0.9754144 0.40577817 0.06879723 0.30710024 -0.30466825 0.20359156 0.7662683 -0.6122063 0.30154562 0.022843124 0.4150285 -0.67058885 0.60390306 -1.0547881 0.78619766 -0.46625558 0.8851971 0.28430173 1.2170941 0.2073935 -0.87604517 -0.15449062 -0.32574955 -0.21581264 -0.46891946 -0.082756445 0.15156263 0.27012962 0.55488455 -0.13136604 0.76657784 -0.041500267 0.5401533 -1.1406591 -1.1770855 -0.2794235 -0.5924637 0.95207036 -0.3872426 0.9560504 0.36422595 -0.07511089 0.7614694 0.5658053 -0.2089167 -0.60700786 -0.025461255 -0.6613738 -0.12719952 -0.20716353 0.21454348 -0.44185418 0.18400347 0.6609469 -0.112035364 -0.33914146 -0.098970324 -0.47711122 0.67479265 1.3892726 0.25420395 -1.4760729 -0.37950885 0.26078677 -1.4169987 -0.15924735 -0.18894638 -1.5343897 -0.5042094 
http://dbpedia.org/property/ground 0.049270675 0.33527562 -1.1526983 -0.027886469 -0.39407244 0.36970174 -0.6079807 0.077042006 0.20217879 0.28586936 0.5876679 -0.34820196 0.14581166 0.71075004 -0.29282022 -0.16162361 0.43034366 0.70088935 0.4061939 0.8924946 0.8139298 0.7116786 0.80934626 0.74310225 0.8665497 0.55430806 -0.66854686 -0.3091026 0.33392352 0.16242537 1.1279728 -0.7995089 -0.78552747 0.65552217 -0.109933145 -0.20788799 -0.81426066 0.14257637 -0.7938603 -0.08490174 0.18467724 0.93042415 0.00092137035 -0.06556001 -0.6891984 -1.0151277 -1.2070361 0.22947143 -0.5017275 0.92943156 -0.36404437 0.11424791 -0.021986447 -1.198906 -0.07381815 -0.4088372 0.9997804 0.7958342 -0.13641292 -0.50918883 -0.9003152 -0.45858026 0.19026993 0.284702 0.8998586 0.17141229 0.07821112 -0.82139695 0.75212073 0.033999633 0.6549965 0.44850576 0.26566628 -0.27441856 -0.39590344 0.31294534 0.11308868 0.13611153 0.05737837 -0.31346658 0.61592424 -0.42709228 -0.3146137 0.0028553805 0.5513817 0.46250927 -0.5572714 -0.39539084 -0.50337005 -0.47817943 -0.052871466 -1.2519829 0.02353694 1.2525327 -0.8918989 -0.831919 -0.84322757 0.41063562 0.3616412 -0.5210936 -0.08350657 -0.23449257 0.6239329 -0.4373307 -0.47283068 0.18872729 0.16498503 -0.30696133 0.6603085 0.4439022 0.03426991 0.652648 -0.4461142 0.8886638 0.7275091 -0.6305612 0.6774563 0.0561096 0.39009136 0.26074013 0.9441444 0.09296033 -0.26818278 0.3596511 0.07113711 -0.7145478 1.5699862 1.0697749 -0.5969228 -0.7550029 0.2863682 0.5408821 0.7858478 -0.042992778 -0.0556534 0.9577154 -0.07537115 0.20168279 -1.0858303 -0.1145443 0.16152091 0.370817 -0.40541068 -0.44066888 0.06789812 0.60118014 -0.7293272 -0.7503617 -0.097351976 -0.23206574 -0.42217168 -0.56564564 -0.54783493 -0.33629927 -0.5649126 0.5744222 0.97877115 -0.31282493 0.3770238 0.801228 0.3796408 0.032736555 -0.91222763 0.7903522 0.054347716 -0.10574884 0.91030294 0.3743022 0.05546089 -1.3814968 -0.68618304 0.7685082 -0.7375464 -0.42916888 -0.339107 0.388526 0.38939083 -0.49954194 0.22783735 0.11532328 -1.0145015 0.4894831 -0.0048334035 0.6075719 0.95858437 -1.0101641 -0.015619234 0.30945507 0.10479477 -0.5257899 -0.21637042 0.26562813 -1.7595307 0.37651137 0.13608338 -0.24251668 0.12880754 0.82332397 -1.343321 0.27990806 
http://dbpedia.org/resource/Eastbourne -0.73226595 -0.12283094 0.13506667 0.24980485 0.07445487 0.48566243 -0.31879473 -0.25624537 0.073403314 -0.13292627 -0.375484 0.03193996 0.918085 0.7652342 0.12645319 0.10224303 -0.48383465 0.9637998 1.4530306 -0.745824 -0.24548444 -0.05158517 1.4062784 0.54164934 1.2090026 -0.2482864 -0.14308347 0.80030024 -0.34996387 0.36304173 0.24107574 0.066553846 0.31738544 -0.6880687 0.4879244 -0.36147967 0.19527799 0.68777317 -0.05735114 0.20166452 -0.28057227 0.23260504 -0.475519 -0.38129336 0.478702 -0.17432049 -0.90167737 0.17005098 -0.22242618 0.46564406 -0.7899511 -0.0650429 0.383049 -0.19712351 1.3296396 0.37151954 -0.0714306 0.6765954 -0.7136864 -0.22092198 0.6997105 -0.19900753 -0.2796038 -0.16479678 0.3935184 -0.8484074 -0.8206014 0.53862965 1.8929352 0.7761892 -0.4450403 -0.13692406 0.25593242 -0.49851587 0.92187995 1.0446362 -0.70091546 -0.7514771 0.54289114 0.03283872 1.011312 -0.82734513 0.49153253 0.22408386 -0.7053317 0.41223544 -0.37008157 0.10873088 0.16353205 -0.5850252 -0.4905243 -0.006389218 -1.361099 -0.44808498 0.022381168 0.9977161 0.92818075 0.4157836 1.2205952 0.4207768 0.22091556 -0.46325043 -1.4111933 -0.4294032 0.5058496 0.09714774 -0.060497105 -0.7478252 1.7070713 0.49482906 -0.5456809 0.60089254 0.24082205 -0.31023866 0.4327767 0.28284127 1.46391 0.12109276 1.1121926 0.77493465 0.34720993 -0.17427725 0.9570695 -0.31417125 -0.03763467 -0.0007718291 -0.018278582 -0.26386994 -0.5604002 -0.21629712 -0.45557162 -1.1802377 0.34569964 -0.40358824 0.6677508 -0.4400808 -0.14971143 1.1453164 -0.38525373 0.3142494 0.54215556 0.14923482 -1.4510548 0.74834085 -1.0897304 0.6231427 0.2251546 0.9690222 -0.040162202 1.0803449 1.5140337 -0.91189474 -0.8791373 -0.105164565 0.048014585 -0.06857905 -1.0075843 -0.6621422 0.2691458 -0.30149812 0.5126646 0.04474664 0.5739235 0.3930394 -0.3247835 -0.73863274 -1.252981 -0.8906092 0.62122935 0.89369464 0.66943514 0.12818892 0.087554164 0.14205873 0.3955516 0.13866171 0.30106872 0.5960556 -0.9580878 0.01319445 -0.9790935 0.27008763 -0.07836649 0.2150377 -0.26237515 -0.2787485 -0.15101139 0.5372771 -0.5312146 0.36691692 0.5109536 -0.05294689 -1.1443858 0.29276666 -0.06738099 -0.64167595 -0.5774148 1.1899966 -1.6797857 -0.29249373 
http://dbpedia.org/resource/Sergio_Torres_(footballer,_born_1981) -1.2784151 -0.013889452 -0.084610924 1.4052148 -0.25226825 0.19825368 -0.2567636 -0.22845462 0.6102014 -0.44161174 -0.23713697 0.107353434 1.3258744 -0.16389805 -0.66355157 -0.14907424 -1.0379941 0.4848785 0.06037893 0.21902205 0.6081146 0.3325523 1.0818055 1.0072625 0.7926389 0.21538635 -0.4711171 0.14626119 -0.25855657 0.26175064 0.22974546 -0.46877414 -0.49954522 -0.7192202 0.99615276 -0.44712925 0.27165848 -0.058338054 0.027982133 0.17235848 0.24660704 0.7589796 -0.5989668 0.5754808 -0.41315275 -0.44485497 -0.36181766 0.07044952 -0.47885767 0.6922419 -0.4031877 0.42705572 0.21267311 0.3873521 0.20221308 0.45376664 0.38132635 0.23266442 -0.1189309 -0.09455004 0.19145775 0.15069987 -0.34450603 -0.2715239 1.2228907 -0.7848683 -0.9953624 -0.20925051 0.6008073 0.50538063 -0.42601553 0.65437794 -0.7552313 -0.61646473 0.6191877 0.2810236 -0.13504428 -0.55714554 0.29332352 -0.42610464 -0.5841873 -0.067159 -0.072595924 0.8067477 0.34676877 -0.14251603 0.4343338 -0.018344313 -0.066319354 -0.3254734 -0.8648523 0.015352596 0.30348563 -0.23732585 -0.8875692 0.7802395 0.27388442 1.7683337 0.34510976 -0.54409 -0.32986462 -0.16332166 0.3932034 0.22755796 0.5015556 -0.2507316 0.22872068 -0.5380877 1.2356615 0.1721079 -0.13915357 0.4133943 0.3483288 -0.44277367 -0.06764385 -0.049264535 0.89851683 -0.13397531 0.2119754 1.2910935 -0.1309505 0.59808135 1.4311597 0.30454805 0.25674504 0.40428406 0.000117846546 0.3499086 -0.009236494 0.29753703 -0.4458731 -1.0176747 0.10002802 -0.19392574 0.42524338 0.3804133 -0.1948021 0.48193157 -0.4131024 0.16476014 0.06293699 0.08104196 -1.0217491 0.5185038 -0.75298685 0.5910731 0.08224009 0.9439907 0.17110422 0.6894432 0.17284437 -0.47363856 -0.09350011 -0.095185995 -0.7148382 -0.10846752 -0.4902585 0.49078026 0.47288117 1.5522735 -0.076714724 1.2935296 -0.07349385 0.592525 -0.43766898 -0.8828869 -0.2597186 -0.364206 0.6618374 -0.021411268 0.6672184 -0.10217405 0.0069440096 0.45071605 -0.047435213 -0.07896793 -0.02928437 -0.041408688 -1.0683026 -0.39509922 -0.25595522 0.48257136 0.26029068 -0.44955927 -0.0042938488 0.27210227 -0.47861913 -0.29672405 -0.3040995 1.2881591 1.2107685 0.38049075 -0.95925707 -0.22552843 0.0783015 -1.1210248 -0.75122297 0.09267634 -0.6534248 0.06916544 
http://schema.org/Organization -0.6948336 0.21985307 -0.9359224 -1.2559339 0.17231424 -0.23037687 -0.58022964 -0.3141349 -0.1362333 -0.22296037 0.08224557 -0.9258998 -0.061202656 -0.31542152 -0.5069094 0.14700632 0.5308534 0.7441774 0.0581783 0.8048791 0.37266478 0.13189758 -0.0883403 0.21964204 -0.034208544 0.72882485 -0.39586782 0.59333384 0.22465684 -0.7176728 0.4656281 0.09234499 0.08705534 -0.063986294 0.03973991 0.16867541 0.1259999 0.19568792 -0.1847657 0.17392938 0.24772505 0.5496104 -0.52616006 -0.22309785 -0.37431183 -0.32047883 -0.89273113 -0.4399168 -0.3314951 0.44228336 0.4714141 -0.035588786 0.20699331 -0.29010344 -0.8613532 0.52828085 0.2628745 1.172785 -0.49987245 0.4067419 -0.07484931 0.3030968 -0.51502806 -0.10672523 0.7740922 0.22739238 0.35177988 -0.5406315 0.9788816 0.26341757 0.5343811 0.45973456 0.7352848 0.21420248 -0.6858839 -0.17839597 -0.10540743 0.47051275 0.18602729 0.23844607 0.4837021 -0.400592 0.45183688 0.62898755 0.0013315309 0.11706468 0.073123015 0.30930078 -0.41711253 -0.12162515 -0.551837 -0.1958379 0.17214929 0.18550526 -0.09573819 -0.1037311 0.06955667 -0.33278373 0.5803776 -0.35798103 -0.40293112 0.41504863 -0.032811023 0.011200011 -0.21364404 -0.11861803 0.28854328 0.012169268 0.7846795 0.5872914 0.028776158 0.24021259 -0.15586641 0.13585865 -0.021362798 0.3444557 0.48279178 0.15272498 0.09432292 1.0968077 0.6597508 0.98279524 0.30159092 0.071099915 -0.5871337 -0.83871263 0.4314582 0.17104243 -0.42391673 -0.14803709 0.0720705 0.007569641 -0.22436357 -0.24921066 0.9337428 -0.056724925 0.7001721 0.506958 0.12033458 -0.69930685 -0.009063839 -0.4514864 0.5942911 0.34260947 -0.46383822 0.39954174 -0.27691686 -0.022853434 -0.07565941 0.21872859 0.7605907 0.5114794 -0.22055902 0.1474831 -0.5976389 0.22086515 0.44192505 -0.24783008 0.8665773 0.19458264 0.4042715 -0.4313564 -0.21675397 0.27355874 0.37165388 0.21270397 -0.042985667 0.12455041 -0.11262477 -0.2516505 -0.708617 -0.19494513 0.5612158 0.16314608 0.53165585 0.044470374 0.023027008 -0.68970376 0.057913497 0.74842167 -0.52077335 -0.019562492 0.5398384 0.24030735 0.18929674 -0.71003985 -0.1446489 0.41818476 -0.11139345 -0.15195902 -0.060425814 0.034411117 0.009271357 -0.40528497 0.21550946 -0.39184982 -0.4926157 -0.03200592 -0.4328016 0.8362382 
http://dbpedia.org/ontology/careerStation 2.2009444e-05 0.7672469 -0.6898774 0.5085446 0.08099779 0.25736767 -0.96153134 -0.80758756 0.31274503 -0.05666324 0.5064698 -0.4857581 0.5749927 0.26784366 -0.1893699 0.025754275 0.3720022 0.22278634 0.59858114 0.5413527 0.23220666 0.744492 0.4314338 0.10050448 0.62633306 1.2801919 0.12616907 0.56597453 0.32142937 0.63483685 0.5728842 -0.1455869 -0.7910813 0.86063266 0.20769958 -0.3126392 0.15414864 0.28261063 -0.02888343 0.6582172 0.31249636 0.45169714 0.027101804 0.09294469 -0.41326556 -0.029930642 -0.92656094 -0.5700224 -0.41730663 0.27572906 -0.40416503 0.006475216 -0.8198303 0.3665593 -1.0751339 -0.5607174 1.0684364 -0.3176949 0.011600862 -0.34862855 0.11207194 -0.1423268 -0.25951725 0.32055604 0.112286605 -0.56582445 -0.02220097 0.2940647 0.4586126 -0.6985451 1.0030727 0.81214195 0.61638385 -0.57197654 0.0040026535 -0.05244216 -0.3096229 0.027569009 -0.48485634 -1.0270737 0.45685115 -0.3730758 0.029481478 0.90602034 0.206557 0.92070013 -0.4686932 0.041238885 -0.72365594 0.63549066 0.018986207 -0.7318133 0.2759716 0.7839031 -1.0264276 -0.20310496 -0.30778173 0.21395138 -0.1283251 -0.3278479 0.09116337 0.21513888 0.45974636 -0.30067992 -0.14089066 -0.47988337 0.20066853 -0.25388694 0.3266282 0.5565102 -0.06901293 0.78264177 -0.34024295 0.5609742 0.8305164 0.25078723 0.37454784 0.42675173 0.7171228 -0.013567946 1.3865035 -0.020659562 -0.0018990415 0.30480972 -0.6286328 -0.22440055 0.6919487 0.46515352 -0.18609792 -0.41566044 0.087816305 -0.30372372 0.615112 0.033097982 0.5161258 0.37846914 0.32187787 1.0505114 -0.1503999 -0.040314857 0.019505862 0.053742174 -0.40400177 -0.09872005 -0.60086536 0.15470946 -0.39777032 -0.27271026 0.027140085 -0.4622904 0.24173883 -0.35636035 0.10423803 0.26939982 -0.5476114 -0.10905454 0.39681613 -0.62912005 0.7775067 0.07204999 0.22571608 0.20652062 0.14987978 0.03896344 0.30067626 -0.22169593 -0.059073627 0.45038682 0.0053146076 -0.96283793 -0.29913327 -0.112554416 -0.5315911 0.20969275 0.0647464 0.07618967 0.6517579 -0.16497429 0.13557433 -0.15151821 -0.10846738 -0.2963664 0.019348815 0.4705861 0.25719914 -0.72146606 -0.06077334 0.32705998 -0.48720932 0.29792175 0.53100896 -0.50503135 -0.98832047 0.04728578 0.28199896 -0.21460877 -0.009894105 0.223016 -0.8396421 0.78790903 
http://dbpedia.org/resource/Shaun_Gale__CareerStation__9 -0.8166006 0.567218 -0.08697034 0.36089057 0.054898527 -0.100367434 -0.28985646 -0.2666167 -0.357697 0.0920446 -0.11133049 -0.34079275 0.68558854 -0.12028343 -0.35727572 -0.18101421 0.2743605 0.56804746 0.19805366 0.4168703 0.56513774 0.21462789 0.08945552 0.5038064 0.041565813 0.5635985 -0.30986944 0.66652584 -0.30123997 0.18261702 0.30421442 -0.02901973 0.1327523 -0.11656761 0.018056324 -0.1623631 0.07795601 0.30293816 0.2763498 0.3176124 -0.02225888 0.5103614 -0.70537835 -0.124266274 -0.295179 -0.10757197 -0.61734027 -0.155401 -0.3133188 0.021236742 -0.0085075665 -0.11943225 -0.1410652 -0.060462736 -0.37490204 0.42272672 0.11993175 0.33679602 -0.028130997 0.5444457 -0.09203115 -0.013522132 -0.68050927 -0.21184424 0.6170542 -0.28100547 -0.29370722 -0.1688048 0.22372848 0.18711822 -0.20125361 -0.23097256 -0.35224858 -0.2830881 0.1364445 -0.09490981 -0.014772286 0.10504546 -0.15919699 -0.34125084 0.1875096 -0.18898845 -0.16018324 0.20705849 -0.016684933 0.37654904 0.23528238 0.020795662 -0.37164474 -0.33158803 -0.026190698 -0.15485433 -0.15322423 -0.15136862 -0.3086441 0.63141954 0.016556786 0.59276676 0.14880128 -0.38825932 -0.08516798 -0.05682118 -0.12181074 -0.17921773 -0.3940822 0.11962607 0.13335268 -0.108374365 0.39151722 0.29988202 0.1117731 0.11965082 -0.23408745 0.05346669 0.5348538 -0.15940031 0.5718825 0.27530918 -0.011739095 0.20786208 -0.24279447 0.4789835 0.09038137 0.37071776 -0.37109277 0.28862876 0.10881893 0.39988157 -0.10429483 0.054582722 -0.38635412 0.12770778 -0.06882636 0.112606965 0.49606484 -0.17220938 0.13640466 0.23774087 -0.046753097 -0.043606546 0.1888827 -0.06711524 -0.48187244 0.06469507 -0.69037336 0.52443504 -0.576582 0.55380327 0.07810303 -0.11723456 -0.068759516 -0.019440586 0.19719158 0.012519226 0.20760588 -0.087696284 0.05816307 0.13641363 0.017424634 0.1851886 -0.24903235 0.588119 0.5403181 -0.16420811 -0.3067672 -0.21400224 -0.20515575 -0.28001785 -0.006726745 -0.36064407 0.13116224 -0.069611 0.23240271 0.34596568 0.39817375 0.21593189 0.5901321 0.11523247 -0.26361412 -0.029279266 -0.40575784 0.1120823 -0.06830919 -0.12986478 0.18730496 -0.07545467 -0.19279903 0.41890728 0.13267225 0.20226233 0.5895481 -0.20315567 -0.18245265 0.027053244 0.023813466 -0.5373892 -0.51350635 0.10123455 -0.9349199 -0.17971806 
http://dbpedia.org/ontology/TimePeriod -0.15368144 0.94432414 -0.14340717 0.9963644 0.121367484 0.44019994 -0.75098014 -0.30487752 0.32038847 -0.27979672 0.9880498 -0.72216076 0.117116995 -0.7377848 -0.48659045 -0.22863144 0.39388403 0.47584644 0.20867832 0.325816 0.10126097 0.26342788 1.1055183 -0.32813412 0.31541643 1.9895653 -0.25300598 0.42322308 0.60558593 -0.21128944 0.036227766 -0.39414313 -0.8789685 0.20647262 0.49524048 -0.99043256 0.53608155 -0.22949572 0.48684007 0.5469698 -0.3953853 1.6934488 0.2748591 0.48174837 -0.55456215 -0.16355936 -1.0712832 -0.81553894 -0.34822235 -0.10792903 -0.36669692 0.0016538054 -1.4177359 0.2524791 -1.0468026 0.30358195 0.84515154 -0.74330217 0.14805567 0.42535642 0.85827875 -0.11446829 -0.48627102 -0.07748918 0.8851025 -0.44068483 -0.25288305 0.5157043 0.7942257 -0.31711435 1.3491628 0.56716746 -0.66490906 -1.0922766 1.2287254 -0.77640796 -0.5985938 -0.11427951 -0.23466876 -1.5858058 0.77399415 -0.39432985 0.18314521 1.0052162 -0.07948693 0.44830367 0.05338051 -0.038647767 -1.8613633 0.65285224 -0.23308632 -0.69282854 0.34199756 0.0744776 -1.7553682 0.898221 0.7468022 -0.26237026 -0.69597006 0.40925655 0.25808358 0.95739996 1.0633742 0.70704764 -0.14890839 0.11857914 -0.018547408 -0.26273605 -0.11473237 0.34906003 0.48859534 0.8014874 -0.5157283 0.5737086 0.85516125 0.92990893 -0.09716752 0.8604218 0.67850316 -0.333371 1.3977323 -0.13727368 0.008256982 0.44859955 -2.2911901 -0.11980945 0.14385332 0.42122933 0.12627609 -0.5706518 0.23882014 -0.79355586 0.90725195 0.05970522 0.9501176 -0.057624128 0.75877064 1.0521255 0.58829033 -0.6385078 -0.38686505 -0.28436375 -0.76921684 0.07806347 -0.3458869 0.4993986 0.46675342 0.53757167 -0.3563631 -0.544247 0.39418906 -0.1697576 0.06330063 0.80796653 -0.7109788 -0.7452636 -0.24292177 -0.22132711 0.84835273 -0.83882743 -0.27541187 -0.36494604 0.9077495 -0.17713411 0.4442268 -0.5966304 -0.5324725 0.7292119 -0.44030273 -0.46382886 -0.74325436 0.519959 0.02789616 0.8156462 -0.19306111 -0.8532681 1.065059 -0.5922286 -0.16011658 0.5013012 -0.75109565 -0.99100935 -0.11913493 0.6162472 0.16653037 0.36899066 0.38710305 0.033209883 0.040787097 0.70434153 1.2615108 -1.130493 -1.4236151 -0.6338217 0.66338414 0.03760957 -0.08923079 0.40509462 -0.6217407 0.19954205 
http://dbpedia.org/resource/Exeter_City_F.C. -0.8229977 -0.55001324 -0.33493343 0.13591966 0.03878303 -0.38730922 -0.70851904 -0.48909712 -0.06027613 -0.42858493 -0.08220922 -0.9693135 1.0140849 -0.2269089 -1.0740647 -0.043670665 0.19000718 -0.3897962 1.1273438 -0.64984995 1.2454518 0.55861455 -0.051498555 0.29331407 0.6774122 0.29105106 -0.004505318 1.3057041 -0.2644163 0.20000136 -0.10993195 0.48516804 -0.46279374 -0.41068095 -0.065987065 -0.9680833 1.2637562 0.82774246 1.6165721 -0.42629126 -1.1332314 -0.16512515 -1.2449323 -0.064149745 0.35493654 -0.47784376 0.39350715 0.34072807 0.2652521 -0.77445966 0.720524 -0.8004381 -0.48909178 0.92840326 -0.5489361 0.2929301 0.43071374 0.9667414 0.70209247 -0.08834953 -1.6522182 0.09263803 -1.1483307 -0.78562576 -0.09729621 0.18517964 -0.8046281 -1.1489675 0.5637963 0.24981801 -1.0741018 -0.94386446 0.8641936 -1.0975128 1.0943564 0.3395806 -0.5107682 0.15489668 0.12773392 -0.85222465 0.31166363 0.304997 -0.47806454 0.042949013 -0.62692547 1.8127519 0.72683764 0.07427144 -0.12893319 -0.21396293 0.17571266 -0.4314263 -0.60138166 -0.25230002 -0.9839825 0.30815396 -1.3050323 0.34369603 -0.30098256 -1.0628403 -0.24189425 -0.7955217 -0.29122368 -0.62525916 0.35057354 -0.13560198 0.4056641 -0.17682114 0.81982386 -0.12972757 0.54134715 -1.2991831 1.4254256 -0.07059494 0.9967649 0.14665443 0.81326574 -0.4328617 0.9825959 0.31809527 0.044945195 0.5150029 1.1165175 0.5764082 -0.2565422 -0.07625137 0.28546366 1.2332537 -0.704018 0.65137404 0.3110525 -1.0315126 -0.6123696 0.56415975 -0.09406 0.64544094 1.0059938 1.4261119 0.22444563 -0.14991723 -0.3631612 0.5359741 -0.6771683 0.48161146 -1.2390698 0.2671604 -0.7802807 0.33508918 1.4005715 0.72670156 -0.33899742 0.64645326 0.81024545 0.14269638 0.3425212 -0.64197695 0.41016534 -0.31742698 0.55413055 1.0364782 0.315988 0.7150851 0.92037565 0.70456916 -0.9679933 0.23998444 -0.1778702 0.27654538 -0.329943 -0.4130812 0.18151611 -0.99664015 0.7849949 0.053618956 1.1608498 0.5831322 0.94379824 -0.5860256 0.09575795 -0.776172 -0.6129681 1.1134655 0.00512876 -0.71666425 0.42484882 0.22747578 -0.79973084 0.2947998 0.7446638 -0.009335229 0.6469992 0.09763813 -0.2563012 0.8905095 0.86667466 -1.4753168 -0.11978587 0.16831854 -2.0629785 -0.5122692 
http://dbpedia.org/resource/Timothée_Dieng -1.259023 0.107763626 0.35848275 0.1923113 -0.5506713 0.07260418 0.0033783054 -0.4822185 -0.4628747 -0.38506818 -0.02675559 -0.34003612 1.0152667 -0.36057433 -0.49542502 0.098208584 0.14761373 -0.51898265 0.63035667 -0.64683616 1.2855747 0.28508213 -0.08539442 -0.2237854 0.6530437 0.6039186 -0.32748982 1.0797353 -0.33667806 -0.42979386 0.20164011 0.05887954 -0.23519143 0.099835426 -0.18413934 -1.085221 0.9851366 0.26244268 1.1415737 0.22584464 -1.2794013 0.4161409 -1.2124796 -0.040378023 0.02547809 -0.043575644 -0.2888058 0.09150917 0.3142853 -0.7488117 0.20029947 -0.54121107 -0.2277018 0.79789793 -0.15989827 0.18773904 0.699507 0.85666174 0.916092 0.10754885 -1.5012467 0.1126169 -1.5459245 -0.0931157 0.4464173 0.5522133 -0.6850719 -0.9843778 0.25303167 0.53497875 -0.5237513 -0.18646698 0.19788082 -0.67453325 0.76619756 0.6431722 -0.24618258 0.28920302 -0.4494854 -0.7470355 0.9626398 0.034902975 -0.5411823 -0.2291475 -0.650169 1.6350695 0.46599713 0.80129 -0.2758251 0.46186706 -0.25875345 -0.06114617 0.170285 -0.781957 -1.0061537 0.49931043 -0.4573509 0.35921943 -0.010019431 -0.18042757 0.44886017 -0.3015586 0.6116692 0.02610892 0.51995665 -0.27342275 0.13282669 -0.510817 0.57625735 -0.2684081 0.26610708 -0.48557678 1.0705189 -0.2791227 0.7254101 -0.11414991 0.8281299 0.2948544 0.82265204 0.29525605 0.3686528 0.5249003 0.819005 0.37423748 -0.6412871 0.14876993 0.29450396 1.0536833 -0.05149669 0.37361982 0.080679365 -0.48680982 -0.93221575 0.47334483 0.061372433 0.28711882 0.92975897 0.56446534 0.6156654 -0.02316129 0.10071182 0.16641639 -0.6771233 -0.10472398 -0.9024115 0.8217747 -0.09542073 0.5426103 1.4310099 0.652739 -0.5814675 -0.054194283 0.28488144 0.072857685 -0.009755029 0.014281662 -0.16574109 0.10670616 -0.07203603 -0.08411369 0.05072297 0.6907202 1.0197982 1.0642066 -0.7657124 0.5587125 -0.52885365 0.050032046 0.44009188 -0.22957925 -0.059129637 -1.0746613 0.3590192 -0.03107083 0.684858 0.38908607 1.3554304 0.36024752 0.06684763 -0.4577306 -0.21584766 0.10373261 0.029000659 -0.6305734 0.108364485 0.24875636 -0.5178678 0.052735545 1.2143862 -0.74266565 0.92262584 0.17905988 -0.01537113 1.4817609 0.5926877 -1.575572 -0.09377256 -0.6173434 -1.6009305 -0.17998786 
http://www.wikidata.org/entity/Q24229398 -0.46980828 0.050436843 -0.8643662 -1.0364397 0.18834932 -0.077073336 -0.6630665 -0.37773678 -0.077658474 -0.289137 0.44612843 -0.5859097 0.07779851 -0.1207864 -0.31238925 0.07565462 0.4446282 0.35068563 0.19827692 0.86839855 0.34974894 0.24562132 -0.13041104 0.27818844 -0.20804855 0.7900364 -0.1891371 0.51023954 0.08854289 -0.67280465 0.3256382 0.0039094505 0.028204227 -0.08096538 0.14403267 0.22094919 0.28707355 0.042974316 -0.06652273 0.19060011 0.24205667 0.54378414 -0.47767082 -0.09492244 -0.36045167 -0.27576715 -1.0265051 -0.39833468 -0.44071072 0.18771008 0.40185547 0.04689976 0.34630752 -0.2579776 -0.6691232 0.38152516 0.22451195 0.81749654 -0.4200425 0.45934293 0.13175178 0.33612737 -0.3726265 -0.22487868 0.90675545 0.46654376 0.553204 -0.39207855 1.01194 0.38462156 0.44533142 0.34687185 0.73062706 0.36101007 -0.7349813 0.014363705 -0.22104138 0.41490945 0.25400114 0.18396623 0.6280297 -0.28534704 0.20667733 0.32378027 -0.05466327 -0.030184047 0.38336125 0.50493115 -0.42875597 -0.12447569 -0.6792389 -0.16977818 0.08573273 0.37075862 -0.1412085 0.015761128 0.20150626 -0.2188283 0.7022722 -0.5163754 -0.46091753 0.6146234 0.24075036 0.15851665 0.03870066 0.2299329 0.13025033 0.44376442 0.87315756 0.64635813 0.12798448 0.6071705 -0.0041454667 0.083549134 0.35129398 0.2711563 0.10791876 0.16483498 0.35715258 0.7100605 0.81783605 0.91280925 0.39900634 -0.029742287 -0.6111307 -0.8575181 0.50912327 0.2904637 -0.15314402 -0.27125275 -0.053290717 -0.29391307 -0.3902429 -0.15842693 0.8952272 0.15289508 0.9142481 0.63537526 -0.12773353 -0.95858264 0.3066041 -0.4161726 0.6299093 0.33014804 -0.35355031 0.28895295 -0.18594863 0.016076779 -0.1917826 0.09680434 0.6112606 0.44106662 -0.34390604 0.20202436 -0.63493216 -0.024651216 0.40701848 -0.3088372 0.7307618 -0.23932365 0.4798185 -0.38762274 -0.2666278 0.20837004 0.06307438 -0.108471334 -0.07426713 -0.037459504 -0.0028940323 -0.3745605 -1.081775 0.06647752 0.6974881 0.18340729 0.23990354 -0.036536705 0.29453424 -0.7441621 0.16971403 0.73287326 -0.43549854 -0.18323988 0.35401568 0.47060323 0.148492 -0.49754494 0.030739235 0.30041987 0.26149994 -0.07397101 -0.14208508 -0.1623485 -0.038017605 -0.31660286 0.2841974 -0.21132591 -0.25430748 0.0769469 -0.52967113 0.90121907 
http://dbpedia.org/resource/Portsmouth_F.C. -1.0096177 -0.32270557 0.10351557 0.09312712 0.42521504 0.79718554 0.28478855 -0.051741976 0.7904465 -1.319409 0.17266198 -0.08756272 0.56876606 0.07336576 -1.1326301 0.6136853 1.1591673 0.40612724 0.4544927 0.22688548 -0.92493594 1.5782338 -1.2220228 0.38046604 0.16838193 1.0364909 0.65002793 0.68666524 -0.33780348 1.9936098 1.0447245 -0.45304272 0.39543447 0.5315436 -0.31124973 -0.31282657 0.14658193 0.71679705 -0.5082097 1.0942694 -0.15801004 -0.56803 -0.9294204 -0.68845814 -0.02382381 0.54684526 -0.94141 0.35191125 0.12592663 -0.4111697 -0.024542913 -1.2053987 -0.26083854 0.10560928 0.27574807 1.2474769 -0.19375329 0.9752362 -0.4567482 -0.25183356 -0.5577773 -0.42421412 -0.22777306 -0.8341586 0.20757098 -0.026387613 -0.91021895 -1.1370068 0.023133274 1.0184001 -0.684832 -0.22631428 0.14161812 -0.496646 -0.48172918 -0.108835086 0.53609574 0.16746293 -0.24504246 0.3960267 0.9776069 -0.8207004 0.6885532 0.7743085 -0.088630475 1.8172666 -0.18111981 -0.08291211 -0.108419955 -0.3719802 -0.24191011 -0.49845636 0.2675596 0.26063934 -0.66069865 1.0067009 0.021832673 0.57867223 -0.5577566 -0.73246455 0.7572422 -0.5602067 -0.42831424 -1.2477567 -1.0707902 -0.18950804 0.573234 0.006442914 1.1465833 0.38217494 0.35311297 0.2873517 0.44061404 -0.101653755 1.244186 -1.3684455 0.64036804 0.24460976 0.74045515 0.49988788 0.15276393 0.65633434 0.031480715 0.49314657 -0.6826823 0.029222973 0.14551528 0.21128003 0.24467795 -0.5315283 -1.1761922 -0.44569626 0.59576434 0.5546968 0.13736439 -0.21997002 0.24226093 0.13676713 -0.58248657 -0.16302787 0.35208002 1.1430925 -0.71688795 0.06551452 -0.21639326 0.44801664 -0.75109816 0.50505435 0.51582974 0.83600056 0.43602353 1.1005164 0.14538991 -0.15103841 0.24764411 -0.16266084 0.3146449 0.031736955 0.08057384 -0.24739875 0.51741207 0.13790454 0.47901574 -0.51587105 -1.2504725 0.5500712 -0.29813167 -0.77562803 0.47606623 -0.13642116 0.7606918 0.29808325 0.69316643 0.37226692 -0.15644607 0.59003174 0.6980213 -0.61394536 -0.9965632 -0.24862799 -0.6764466 0.8474181 0.46961102 -0.80880535 0.22519113 0.88032794 -0.5735155 1.1602055 -0.8758124 0.24228942 -0.36568606 0.12680635 -0.06954826 -0.1429083 0.5194518 -1.6180454 -0.6958756 -0.13645974 -0.595309 0.18077183 
http://dbpedia.org/resource/Sean_Raggett -0.85781336 -0.1000048 0.74938655 0.28716868 0.09894848 0.43486455 0.49684107 0.25526747 0.92917347 -0.52445024 0.07593712 -0.3651109 0.6496919 -0.16158798 -1.2219602 0.70875317 0.7430655 0.5436183 -0.114714935 0.050611 -0.7319005 1.147772 -0.54625416 0.56335783 0.69944143 0.79485095 0.31954715 0.24437685 -0.03328771 1.4252869 0.6653221 -1.2051678 -0.055005413 0.19415659 0.14009346 -0.33018404 0.18373534 0.96961445 -0.20817253 1.1215037 -0.30395764 -0.31249428 -0.8252868 -0.2450581 0.040439177 0.6658279 -0.8819992 0.0023664152 0.60624593 -0.25156826 0.035997126 -0.7706308 0.33073637 0.41314057 -0.2957182 0.70004517 -0.0890434 0.72781026 -0.5255179 0.4018085 -0.107300304 -0.35295677 -1.0175548 -0.4223139 0.24290806 -0.4509696 -0.557145 -0.8415526 0.44237292 0.59195656 -0.895486 0.11130728 -0.2718307 -0.34159863 -0.08298255 -0.5608856 -0.005166724 -0.35612372 -0.21515681 0.059876315 0.13444832 -0.5683845 0.29189223 0.5116198 0.03346985 1.2206513 0.082999915 -0.321258 -0.58374125 0.2510743 -0.1675785 -0.5031933 -0.044528168 -0.08326879 -1.0689361 1.2738438 0.40132695 0.9023116 -0.30081266 -0.22921918 0.48889878 -0.66282254 0.23487149 -0.8537999 -1.3439095 -0.54605716 0.16210534 0.110735945 0.8242946 0.4612315 0.67998844 0.51174974 0.07864897 0.007726586 1.6778847 -0.85491323 0.48559695 1.0054282 0.44337192 0.8204697 -0.094728656 0.5839263 0.5840252 0.41711515 -0.53693855 0.5801793 0.08124522 0.265673 0.08512888 -0.746349 -1.264142 -0.9483476 0.0712375 -0.12950964 0.75017345 0.27119994 0.1518494 -0.2361662 -0.5967357 -0.23731904 -0.217676 0.32416114 -1.2825314 0.22363472 -0.3445429 0.76879483 -0.46197608 0.09534857 0.49202535 0.36633202 0.45215502 0.93404675 -0.07175017 -0.08527658 0.66507417 0.26740605 -0.08711893 0.15200406 0.4360797 0.22086525 0.62404877 0.52958846 0.47742248 0.05594427 -1.0043564 0.1859517 0.11879571 -1.210305 -0.058221743 0.09114993 1.0462799 0.3785103 0.5517861 0.49254358 0.024709031 0.6697785 0.5075147 -0.44374698 -1.2066523 -0.35454783 -0.61475354 0.2856439 0.12803786 -1.0086902 0.56661093 1.3038394 0.031571116 0.76945186 -0.81058645 0.19132909 0.48847058 0.43567038 0.8884029 -0.47993508 -0.09227125 -1.6854558 -0.48313382 0.46150318 -0.85521674 0.51818556 
http://dbpedia.org/resource/Michael_Jacobs_(footballer) -0.6067688 -0.14312945 0.3154247 0.7906398 0.019814065 1.0301597 0.058931623 0.49002537 0.56972325 -1.2250102 0.100778595 0.19561277 0.5154699 0.03677456 -1.0295479 1.1838063 0.8803601 0.33767578 -0.22816236 -0.06450597 -0.8742558 1.3990898 -0.58459324 -0.5390862 0.50020367 1.3216463 0.10141505 0.8315899 -0.35151446 1.8116477 0.86121553 -0.41640997 0.39414513 0.27446985 -0.34904188 -0.14288831 -0.04219451 1.1093479 -0.25601542 0.87117594 0.08814655 -0.43772662 -1.1414852 -0.5900612 -0.48264724 0.27505097 -1.0167826 -0.13853593 0.20634833 -0.6769551 -0.07001253 -1.0109707 -0.42239738 0.64834785 0.1904606 0.5003851 0.06309709 0.41456065 -0.28818855 0.82224053 -0.5174929 -0.07470211 -0.7870302 -0.6436727 0.47369775 0.18788505 -0.7124901 -1.0268248 0.87565464 1.1254573 0.053805124 0.09081542 0.13689804 -0.6048147 0.34043348 -0.51490295 -0.34251204 -0.20816411 -0.42873672 0.28513798 0.97074026 -0.09656259 0.21508497 0.70451385 -0.15051326 1.6688751 -0.19357206 -0.5597282 -0.77659804 0.37612742 -0.5815479 -0.6381539 1.0034032 0.32125604 -0.6625387 1.5281575 -0.033699434 0.4852292 -0.20480174 -0.8654408 0.34715146 -0.77928305 -0.18040098 -1.2975982 -1.3800242 -0.3834336 0.55283844 -0.39493993 1.0117669 0.07686203 -0.050483137 0.11317985 -0.17675254 -0.4091686 1.2136478 -0.5905371 0.5698985 0.5331336 0.093135 -0.045251764 0.022761507 0.91383946 0.3326858 0.044398714 -0.75672334 0.29560837 0.5712746 -0.040436417 0.19339274 -0.25130385 -0.7094249 0.22526805 0.8448123 0.08326907 0.39232507 0.5511776 -0.05721188 -0.74595857 0.044589944 -0.46992394 0.7940829 0.887996 -0.94842136 -0.09032753 -0.41945103 0.54874486 -0.42511776 0.19412911 0.6157445 0.2887627 0.29977015 1.0144575 -0.13513507 -0.5848789 0.39216188 0.40074953 0.06895107 0.39426297 -0.19118845 -0.33879462 -0.60914093 0.33148044 0.86325204 -0.36206478 -0.80925447 0.26418978 -0.31991953 -0.9565728 0.23898976 0.5000379 0.9171139 -0.13779877 0.45515126 0.2727268 0.23048347 0.086253725 0.68606395 -0.14544377 -0.74544305 0.02842738 -0.48002672 0.28102952 -0.11534217 -1.208642 0.2699877 0.9439236 -0.70848244 0.86544096 -0.6132043 -0.4405613 0.79685277 0.016468445 0.472283 0.09240372 0.2906829 -1.5542955 -1.0018665 0.32155454 -0.968447 0.15679246 
http://dbpedia.org/resource/Shaun_Williams_(footballer) -0.41125754 0.06873588 0.4967706 0.5550674 0.5960087 0.9244774 -0.0019447586 0.45561823 0.50189453 -1.0881305 -0.21839465 0.023419663 0.8818021 -0.074665 -1.0026393 0.69862056 0.8266042 0.60065097 -0.32559898 0.70333946 -0.260059 0.9510098 -0.9626316 0.54570967 0.23189838 1.0955359 0.31434572 0.5372635 -0.1609556 0.87987435 0.5291683 -0.5818861 0.6757504 0.69289744 -0.32215312 -0.5054481 -0.121707484 0.98439026 -0.1750868 0.67998993 -0.36522132 -0.4889954 -0.8261206 -0.97927105 0.7066566 0.11687054 -0.5170526 0.36332244 -0.1356843 -0.026178028 -0.39193463 -0.6121911 -0.038309883 0.13892776 0.373123 0.46568593 -0.569801 0.16146454 -0.8597621 0.42189524 -0.78158003 -0.44326493 -0.7670776 -0.16842583 0.77267855 -0.19491827 -0.8016737 -0.91080374 -0.033100035 0.7810407 -0.3999581 0.42553976 -0.099155985 -0.45342502 -0.079427384 0.30433607 0.049180914 -0.6015286 -0.012112272 -0.32981724 0.10330123 -0.5652092 0.6722349 0.9728902 0.35322106 1.5711788 0.097306214 0.026733276 -0.6574724 -0.44333917 -0.5439261 -0.5773651 0.10318047 -0.21402885 -1.0398661 1.0225017 0.086971514 0.8052823 -0.5069104 -1.0986103 0.32967192 -0.13975313 -0.22863524 -1.043161 -0.86044055 -0.48703337 0.40588805 0.20026171 0.95989823 -0.06716825 -0.027831042 -0.116451405 0.24023297 -0.84993094 0.91157675 -1.3126343 0.15425804 0.73335534 0.828104 0.60604167 -0.45001787 0.107824475 0.24130414 0.45488003 -0.9301873 0.44040594 0.41425884 0.19897874 0.3630013 -0.58897007 -0.62104315 0.061533295 -0.19750686 0.14960228 0.30230057 -0.09815064 -0.12888037 -0.009945407 -0.52128017 0.17949802 0.45278594 0.7988111 -1.1589512 -0.13205679 -0.11949634 0.550214 -0.014755835 0.104997285 -0.012734666 0.6279233 0.4170164 0.90933436 0.39093924 0.34159887 0.5797517 0.060748126 0.1405031 0.568757 0.30325425 -0.17578267 0.55738187 0.80634296 0.085355975 -0.3724132 -1.6635 0.89872074 -0.40430412 -0.9013285 0.76396006 0.11519167 0.46725494 0.16408029 0.17393337 -0.023432596 0.09881425 0.25949576 0.8552849 -0.15568672 -1.2594683 -0.3659425 -0.753651 0.6701627 0.3861637 -0.7851337 0.23743 0.83448243 -0.117955975 0.5276827 0.13354833 0.48926 0.42511934 0.47280505 -0.047212146 -0.10694063 0.63988966 -1.2575828 -0.8114477 -0.20388684 -0.55324304 -0.31434664 
http://dbpedia.org/resource/Gavin_Bazunu -0.8774094 0.19224565 0.97828513 0.33850938 0.95868427 0.7083158 0.32164192 -0.10052746 0.9087476 -1.1139404 -0.2436754 0.20432757 1.0186318 -0.26200736 -0.6295974 0.70270956 0.12353662 0.49455696 0.13321918 0.8247675 -0.062804446 0.69441867 -0.24470122 0.44792423 0.16095582 1.0526217 0.23023987 0.62685245 -0.34174913 0.84101915 0.090826385 -0.7889028 0.65478724 0.77093655 0.06776073 -1.2323378 -0.00988646 0.7439163 -0.2769657 0.64133805 -0.44735622 -0.7437998 -0.53979903 -0.5997588 0.24764057 -0.29008397 -0.5436364 0.32905 -0.06537222 -0.57055897 -0.03682101 -0.305751 -0.4952215 0.37020037 0.34110516 0.79436404 -0.30752802 0.49126855 -0.46311754 0.70750856 -0.98637944 -0.89626986 -1.2327907 -0.40607962 0.71129805 -0.53881013 -0.6900266 -0.9393716 -0.048261303 0.2699399 -0.3036506 0.2795615 -0.10355539 -0.6988435 -0.009536634 0.073254555 0.5149015 -0.12544408 -0.4647555 -0.30869788 0.37901956 -1.0858754 0.24117441 1.1052231 0.0134769045 1.992203 0.23971877 0.038241677 -0.0630794 -0.08826205 -0.39082232 -0.40969008 0.17785338 0.26783416 -0.620376 1.004544 0.14860378 0.94881326 -0.5054627 -0.28159922 0.17125112 -0.4498619 -0.12821715 -1.2323089 -1.2105931 -0.63057023 -0.13882944 0.18337338 1.2724686 -0.42536578 -0.16875906 0.41008788 -0.006322948 -0.19192359 0.9308919 -0.7587241 0.6538629 0.70024556 0.8435298 0.6294607 -0.18712859 0.38153678 0.122133404 -0.20322692 -0.823677 0.48288167 0.7544138 0.7617404 -0.24211486 -0.3665848 -0.20564434 -0.75408524 -0.07866456 0.21120924 0.18566929 0.5909742 0.47483304 -0.13144462 -0.27324936 -0.16213165 -0.23599595 0.84253997 -1.0485038 -0.2088527 -0.460226 -0.22332895 0.73289 0.26077914 -0.23034757 0.74958396 0.19216508 0.84873277 0.48796514 -0.024281213 0.7526131 -0.037190933 0.16333368 0.3115009 0.16539612 -0.13732618 0.22839771 0.66808915 0.27241865 -0.3113602 -1.4509176 0.08371608 -0.29479024 -0.98865354 0.30022836 0.5048841 0.48474658 -0.032993983 0.89875454 0.26007113 0.12440745 0.29114547 0.72153455 -0.68635744 -1.2862433 -0.05694161 -0.7891024 0.63794255 0.4254154 -0.36441174 -0.004726424 0.68887967 -0.3694024 0.7100084 -0.1019748 1.3004266 0.4312162 -0.13497342 -0.22199456 0.0150122745 0.17724602 -1.3069385 -0.35329527 -0.47957653 -0.4355681 -0.06962662 
http://xmlns.com/foaf/0.1/isPrimaryTopicOf 0.12279996 0.4203221 0.4737364 -0.20706607 0.042893976 -0.2984157 -0.9321064 -0.11487605 -0.05288636 0.027948312 0.3900549 0.2690644 -0.23711574 -0.090676054 0.017380046 -0.21500227 -0.07607883 -0.35650957 -0.5359447 0.5384671 0.90431535 0.29341474 -0.2694331 -0.022284495 -1.2417933 0.07875377 -0.6133153 0.9623344 -0.46590814 0.34075385 -0.23906383 -0.37393352 -0.15717523 -0.8458528 0.62452304 0.014152148 -0.121904746 -0.32643571 0.65150607 0.41652572 -0.24355786 0.46123448 0.011560124 0.22939555 0.22495274 -0.42094967 -0.47573444 0.49219012 0.17486176 0.06181774 0.65740657 -0.16003658 1.0771807 0.018158672 0.79032254 0.46051082 -1.0379065 -0.081094146 -0.095907405 0.2478978 -0.13269293 -0.015993768 -0.5223137 -1.1142981 0.21285975 -0.14346935 0.024498746 -0.06440889 0.10434517 -0.138916 0.25259793 -0.35693544 0.28627542 0.9411569 -0.13522841 -0.18104957 0.39800248 -0.087746434 0.19575794 0.14993976 0.19482507 0.09020833 -0.48732635 -0.06832447 -0.10966546 -0.052783657 0.56832874 -0.093575835 0.28869554 -0.0074764993 -0.1793228 0.06507109 -0.06432252 0.051158827 0.83747816 0.34123227 0.33870223 0.6802068 0.45076075 0.23056829 -0.17124721 -0.5171811 -0.39030546 -0.055549745 -0.20706216 -0.514451 -0.122997366 0.17264767 -0.21601069 0.6175994 -0.06476572 0.08171345 0.6314354 -0.06964548 -0.09660527 0.137536 0.047833543 -0.04011674 0.0012349744 -0.26835352 -0.36414045 0.75343347 -0.4157169 0.524094 0.3814207 -0.49075067 0.17351003 -0.5284549 -0.17792824 -0.03453432 0.15116106 0.76651484 -0.40119028 -0.27630952 -0.099789515 0.11764251 0.7207336 -0.59284824 0.28644708 -0.15654242 0.3028304 -0.6881471 0.7323152 0.0721152 0.031842753 0.5309301 -0.30321884 0.8688645 0.102023594 -0.05168304 0.72160715 0.047570158 -0.009197186 -0.34638283 -0.04533026 -0.13420679 0.14014837 0.18175724 0.7483948 0.18244192 -0.33142194 -0.30820113 0.49593255 -0.007405608 -0.5617361 -0.46924478 -0.6322852 -0.6055799 -0.063048534 0.0061897803 -0.7855517 -0.11404087 1.2920383 0.122014515 -0.113273114 0.3891607 -0.65699464 0.7445055 -0.21788636 0.012964647 -0.045670968 0.31285465 0.25626332 0.1477012 0.5707758 -0.08077773 0.2566771 -0.048780404 0.4124384 -0.3694037 0.23833618 0.2494068 0.32675228 -0.31927153 0.22045164 -0.11435313 -0.37823644 -0.42013055 0.23050366 0.1604264 
http://en.wikipedia.org/wiki/Portsmouth_F.C. -1.1400371 0.08735281 0.6106929 0.5064408 -0.06996252 0.2898094 0.09743993 -0.2456553 0.73364973 -0.85544235 0.07150028 -0.3343272 0.7406126 -0.23748599 -0.9016663 0.9267775 0.900597 0.5357084 -0.011746876 0.25122428 -0.13529336 1.2902073 -0.0658252 0.101976 -0.03372816 0.84640443 -0.108622804 1.1329942 0.062870055 0.82345605 0.5897164 -0.6105357 0.5102238 -0.123874225 0.2622042 -0.6585287 -0.017915847 0.74366534 -0.28845248 1.0275248 -0.8439316 0.4261603 -0.7840725 -0.0793277 -0.050270066 -0.079196975 -1.1480521 -0.43305957 0.3830309 -0.5556472 -0.51335824 -0.5508516 0.5425374 -0.028254846 0.41455922 -0.12358242 -0.23857205 0.29911226 -0.19121926 0.136012 -0.37481445 -0.2802853 -0.60288197 -0.296993 0.22216801 -0.6009751 -0.12504536 -0.71495473 0.10949032 0.23412134 -0.047897972 -0.15654959 -0.61521167 -0.1549604 0.21665412 -0.47237322 0.1634174 0.21002138 0.065371394 0.48184484 0.86060673 -0.7447037 0.003028557 0.6451209 -0.1310665 1.3526638 0.23161042 -0.07165491 -0.3451471 0.12520114 -0.1630039 -0.2934841 0.060495857 0.08808964 -0.50497556 1.2645892 0.21908239 0.70780426 -0.4151732 -0.7549405 0.14735672 0.07118588 -0.07530816 -0.7682903 -1.1440799 -0.602646 0.49811828 -0.45862553 0.744311 0.11868018 -0.17274909 0.16919534 -0.2515215 -0.27772194 1.5823928 -1.3428574 0.681708 0.89836365 0.34004977 0.3162183 -0.009531297 0.5535588 -0.503225 0.09267841 -1.0654734 0.048117965 0.27271223 0.13821639 -0.03406875 -0.5809359 -0.709521 -0.12684491 0.5689564 -0.26564848 0.607658 1.0644307 0.44941765 0.14998771 -0.09045142 0.20661668 0.29908785 0.28252852 -0.7512855 -0.48753023 -0.43524468 0.64476347 -0.23678508 0.5976392 0.43302456 0.12423832 -0.028499443 0.5858405 0.23526205 0.47827443 0.1089206 -0.025613626 0.078376606 0.8510329 0.78765815 0.25045788 0.11781401 0.24752846 0.96797353 -0.07300154 -0.54872185 0.71285963 -0.6012149 -0.6676245 -0.4008814 0.3178069 0.29774895 -0.33893165 0.61849564 0.55158913 -0.11299115 0.3573332 0.3632554 -0.06884086 -1.2920898 0.06276679 -0.50749433 0.00043989453 -0.059472285 -0.8976054 0.568686 0.6428648 -0.18104689 0.7854585 -0.45603076 0.76534927 0.44910216 -0.049495433 -0.118114695 0.049927294 0.1338673 -0.5649911 -0.61788386 -0.11069166 -1.246615 0.57078606 
http://www.ontologydesignpatterns.org/ont/dul/DUL.owl#SocialPerson -0.7032129 0.23457697 -0.9122988 -1.2643962 0.17675333 -0.2379918 -0.5902445 -0.3405984 -0.13692172 -0.22406048 0.09796185 -0.9270614 -0.0639864 -0.31878823 -0.47855276 0.15085708 0.5084572 0.76168656 0.060731318 0.8222561 0.374782 0.13683511 -0.061172564 0.23131421 -0.0795278 0.7132342 -0.3712528 0.56597596 0.23393324 -0.72399914 0.44588557 0.114093594 0.07994523 -0.06278798 0.04063686 0.15448712 0.12739891 0.19001672 -0.18638405 0.16413721 0.2566698 0.5393229 -0.5376152 -0.23030202 -0.37203673 -0.32213816 -0.87883496 -0.43735927 -0.35911798 0.44056168 0.46598205 -0.031515 0.20808306 -0.27936792 -0.8820699 0.52270895 0.2703471 1.1734991 -0.49667 0.41624817 -0.08200957 0.3078015 -0.5099599 -0.12044978 0.76416546 0.24622016 0.3439814 -0.53437006 0.9741822 0.26617646 0.5157853 0.45041233 0.7447999 0.210666 -0.68168795 -0.16175501 -0.11476431 0.45293513 0.18682691 0.21900108 0.48951745 -0.42431155 0.44083926 0.63402236 -0.014092693 0.13683626 0.08648003 0.32853132 -0.42036387 -0.11451101 -0.56029207 -0.20296545 0.16953062 0.20639783 -0.10604196 -0.11906 0.08546953 -0.32415247 0.6192917 -0.36813203 -0.3969104 0.41895008 -0.03463366 0.013546966 -0.23121858 -0.10394683 0.28964964 0.017956859 0.7826907 0.6047537 0.023970865 0.24931546 -0.15693487 0.09693996 0.0024427653 0.33471856 0.48721072 0.17224088 0.09435859 1.0655599 0.6728576 0.97491044 0.28395966 0.068134844 -0.56385714 -0.8324541 0.44491243 0.16527754 -0.42099693 -0.17217545 0.07802737 0.022793362 -0.22230798 -0.261255 0.9262017 -0.054869443 0.6956168 0.49975216 0.118700705 -0.66938126 -0.0057808594 -0.4649258 0.62109977 0.34961405 -0.46453372 0.38118365 -0.26909763 -0.009011487 -0.07144755 0.23430374 0.7454598 0.5238328 -0.227628 0.15898077 -0.5988009 0.2492049 0.4472237 -0.24014601 0.873126 0.20089935 0.41526982 -0.42448243 -0.2301558 0.24908432 0.39113095 0.22636306 -0.037078634 0.10078797 -0.11244468 -0.23963198 -0.7287977 -0.18785694 0.5405799 0.15227623 0.5262518 0.04048811 0.021905392 -0.67646146 0.05374433 0.7486502 -0.56527364 -0.018269127 0.54670626 0.27289778 0.18671584 -0.7281402 -0.14525945 0.42677295 -0.098680206 -0.15897864 -0.074580744 0.03276826 -0.007434033 -0.400204 0.20199713 -0.38946173 -0.46081397 -0.020231174 -0.4171753 0.82949543 
http://dbpedia.org/ontology/ground -0.1073318 0.31255832 -1.2409365 -0.051512145 -0.42607665 0.26245052 -0.62068945 -0.02480751 0.30059704 0.24985795 0.5193328 -0.18613331 0.39929458 0.8650156 -0.2085128 0.09866451 0.5237249 0.7889247 0.6842831 1.1175727 0.960106 0.70279133 0.85603154 0.9129816 0.7895091 0.7297778 -0.45638674 -0.3797702 0.40019354 0.29139915 1.1226087 -0.78335065 -0.63125896 0.6141369 -0.15919992 -0.49670875 -0.9407841 0.041501578 -0.6583327 -0.07554208 0.07897442 0.774214 -0.30628514 -0.0955114 -0.8169511 -0.9542461 -1.444686 0.12185767 -0.39808515 0.80595654 -0.1876338 0.21823137 -0.17743613 -1.1591089 -0.110558935 -0.059907585 1.2875632 0.60283244 -0.3525834 -0.5812216 -0.6926046 -0.41748026 0.43817 0.5349329 1.1071835 0.28431532 -0.15413839 -1.0787823 0.81147957 0.2679204 0.73872095 0.44114518 0.27194613 -0.06211658 -0.30517298 0.15135227 0.05280126 0.20191701 0.12172938 -0.26442614 0.63366497 -0.57939893 -0.41468072 0.018041808 0.63093156 0.41946554 -0.816385 -0.59438497 -0.45104715 -0.5694607 0.18531948 -1.4590855 0.0935856 1.4168283 -0.80430377 -0.6535886 -0.76417476 0.025837297 0.28596658 -0.38312954 0.06727224 -0.18798658 0.7148405 -0.4577504 -0.42446828 0.37146747 0.41719198 -0.2481787 0.49850363 0.26787758 0.13863952 0.7974329 -0.4259463 1.120535 0.52693367 -0.810628 0.6352935 0.27178416 0.24885978 0.27876005 0.8362596 0.047202248 -0.33123323 0.4665301 -0.3228399 -0.84784395 1.7486042 0.9389015 -0.7491657 -0.71638024 0.4472244 0.5327485 1.119057 0.046495836 -0.14453706 0.95427907 -0.0823471 0.1438181 -1.1206329 -0.16290383 0.1601532 0.31519237 -0.56412035 -0.39488748 -0.15936573 0.7175756 -1.0344169 -0.6578822 -0.21101123 -0.12020668 -0.30610117 -0.47108865 -0.449246 -0.44139248 -0.5251185 0.44385976 1.0120308 -0.28506944 0.39876577 0.92623514 0.4420421 -0.17555991 -0.9910702 0.83654666 0.09033854 -0.063032575 0.90506655 0.44098088 -0.16082002 -1.378556 -0.88324684 0.904643 -0.9273872 -0.40369192 -0.502894 0.42407757 0.66223115 -0.62594706 0.07193991 0.46374184 -1.2089924 0.6418109 0.2459195 0.85380614 0.89574355 -1.3125064 0.12538481 0.45949495 0.33989796 -0.2366113 -0.12979154 0.2908281 -1.7778383 0.26250058 0.1981936 -0.44044513 -0.060654234 0.72896624 -1.2566836 0.35054561 
http://dbpedia.org/resource/Gosport -0.028494153 -0.11644349 0.40483713 0.28392833 0.9404671 0.8989414 -0.17047393 0.4429915 0.84746677 -0.12957253 -0.80618113 0.09142442 1.1326897 0.68238574 0.4480628 -0.08033282 1.0044428 1.4770203 1.247149 -0.37301302 0.7263773 0.26177013 -0.07913336 -0.11020654 0.7808483 0.30597648 0.34726036 -0.32323286 -0.3138743 1.0133721 0.77511203 0.5658449 -0.09172627 -1.0856678 -0.03402572 -0.7474261 0.21254438 0.8293264 -0.020441534 1.2481998 -1.3160118 0.09576895 -0.71469593 -0.40212727 -0.21946028 -0.60593945 -0.13829687 -0.5081867 -0.4168218 0.8210695 0.2845476 -0.5721212 -0.6750658 0.3497626 1.0763932 0.9106399 -0.45285895 0.6723097 -0.50681305 0.9482232 -0.12876433 -0.044195503 -1.8483336 0.72327214 -0.13651805 -0.11308425 -1.5145297 0.3489999 0.77209514 0.9967631 -0.6165253 -0.28204414 0.3845979 -0.48715404 0.48226002 -0.035225153 0.11359532 -0.48040247 -0.5811492 0.69878703 0.9448192 -0.73937315 0.75604385 -0.16248943 0.13943802 0.014368767 0.28548822 -0.49975654 -0.46947297 -0.99015194 -1.2491685 -0.59500563 -0.008768228 -0.42738363 0.44587997 0.9692616 0.5043269 0.2547227 -0.7519738 -0.48558155 0.007853318 0.109553546 -1.7846102 -0.95970124 0.2172248 -0.52163273 -0.035305373 0.3082247 2.2514818 -0.12330951 0.3097769 0.75844955 0.8440288 -0.86176604 1.005628 -0.25633782 1.1348536 0.42923805 -0.058284868 0.7181999 -0.19200666 0.45841217 0.4633639 0.33085272 0.36069337 1.37949 -0.86439097 -0.0097289365 -0.47921357 -0.20885222 0.07857531 -0.58380926 0.49319875 -0.4003232 0.5649073 0.23193501 -0.6451758 1.3991575 -0.36212927 -0.40567556 -0.25996634 -0.50240546 -1.6153495 -0.6416541 -0.4272249 0.59055465 -0.14371869 1.1165131 -0.13304335 1.7401417 0.2380158 1.3058643 0.021638956 0.37627602 -0.074397475 0.6962037 -0.5326287 0.14455415 -0.5208713 -0.3038116 0.18848903 -0.16925928 0.8147561 -0.8027651 -0.6492361 -0.2617472 -0.56370527 -0.4365245 0.35602495 0.22430545 -0.14906202 0.17506546 0.9291773 -0.11364488 0.5676909 0.21158163 0.018365294 -0.8204198 -1.3596504 0.37623364 -0.48074737 -0.6131038 -0.17523386 0.5242428 1.0844805 -0.18443951 -0.33650666 0.7512226 -0.1006615 0.37696284 0.68920785 0.13929893 0.5356294 -0.036067396 -0.723374 -1.2122926 -1.2702538 0.4660849 -1.4084511 -0.42734596 
http://dbpedia.org/ontology/subdivision -0.33292663 -0.4144184 -0.6242527 -0.8644603 0.26706308 -0.004767615 -1.0452529 -1.1254289 -0.026274366 0.5676396 0.55022985 0.082628116 1.1347344 0.4708123 0.16494338 0.5094745 0.6116909 0.28447 0.09320353 0.7587607 -0.23201801 0.3822714 0.32067737 0.46260917 0.80192053 0.435207 0.7331303 -0.13640209 -0.095353805 0.018749494 0.40129685 0.066996 -0.15145408 -0.17725955 -0.53145534 -0.46743006 -0.19432165 -0.0582074 -0.7700861 0.45200175 0.8852521 -0.24150737 -0.64351326 -0.13591273 0.5515484 -0.16515207 -1.0240004 0.89164585 -0.36873987 0.8218065 -0.6437936 1.0234929 0.4996069 -0.29728034 -0.17188615 -0.3490747 0.35621774 0.33885187 0.6093573 0.07426058 -0.90282047 0.60227567 -0.06746182 0.20480292 0.51154184 0.3374691 -0.64781463 -0.49366885 0.49143824 0.4144707 0.34872407 -0.121091776 1.2059075 -0.44580185 -0.8566885 0.17566659 0.35004848 -0.008342824 0.27426797 -0.45842433 0.38033265 -0.9400893 -0.5063077 0.2768456 -0.038295656 -0.65489876 -0.05144064 -0.23870032 -0.7164791 -0.48347908 -0.01617242 -0.8826658 -0.78341675 0.5701342 -0.5788943 -0.389839 -1.1589233 0.009659023 -0.108309366 -0.27524942 -0.8604002 0.6582161 -0.80768406 -0.36767992 -0.5730415 1.332751 0.474972 0.23011175 0.5492811 1.2803749 -0.29443115 0.23660026 -0.48103416 0.07991501 -0.29493818 -0.30907026 -0.040763985 0.6038798 -1.2563567 0.24251486 0.3303691 -0.087653235 -0.058028758 0.46868208 0.46899897 -0.419654 1.0233111 1.2320688 0.11910098 -0.16256903 0.8161891 0.045371734 0.68965405 0.2823067 -0.29421926 0.11375525 -0.241067 -0.009207322 -0.64917684 -0.3050751 0.40423596 0.111456156 -0.5486362 -0.34341794 -0.21309464 0.4475627 -0.52884626 -0.36017007 0.3216898 0.18894129 0.037525456 -0.036172047 -0.24264003 -0.47219154 -0.73585415 -0.2704341 0.95883113 -0.5317611 -0.39821553 0.6189765 0.89168733 -0.08974554 -0.51407504 0.95177454 -0.16185461 0.45598018 0.104059376 0.024315754 0.36710677 -0.19030678 0.0014052434 1.6366386 0.23895867 0.055410225 0.14648436 0.64041203 0.009609096 -0.5018814 0.060837016 0.38804066 -1.2369472 1.1066755 0.50442445 0.24473146 -0.0046076 -0.92815226 0.128356 0.20045975 0.7516424 0.18544216 -0.93173605 -0.28559574 -0.50720096 0.3536879 0.5989043 -0.3650591 0.61506456 0.14555536 -1.3789169 0.046504285 
http://dbpedia.org/resource/South_East_England 0.28897864 -0.5174392 -0.101981476 0.009441537 0.79799974 0.95999455 0.089926906 0.35896587 0.34513 -0.15608954 -1.2483873 0.22133899 1.2498163 0.9044188 0.17351827 0.03385159 0.49173078 1.4920872 1.428057 0.12668388 0.0010568947 0.6945447 0.72633463 0.313498 1.0086612 0.10649049 0.13638212 0.5478423 0.11750827 0.98396015 0.19788294 0.6379716 0.5635156 -1.1587012 -0.021543162 -0.2784625 0.3022514 0.07916974 0.03618175 1.1322927 -0.3075187 0.4856045 -1.4617108 -0.030340271 -0.34803477 -0.2134934 -1.3339411 -0.28582206 0.36451262 0.84110004 -0.26419 0.905036 0.12199032 -0.18137579 -0.27015457 1.3467782 -0.901986 0.9342821 -0.48483914 0.033418935 0.19009168 0.035593066 -0.76476866 0.8864217 0.16555487 -0.48178726 -0.85849035 0.37727827 1.8361752 0.8032853 -0.07987473 0.49781212 0.011442779 -0.4272694 0.16830972 0.30035418 -0.85361624 -0.9922915 -0.34279287 0.19644022 0.7327816 -0.8843957 -0.22383778 0.3613029 -0.31136683 0.47587693 0.29335287 -0.17913537 -0.627472 -0.16665211 -1.0304021 0.1298938 -0.8744095 0.3906239 0.04580236 0.57528514 0.07809542 0.7923528 0.05538379 0.54402924 -0.52346987 0.089077026 -2.1603487 -0.5525124 0.2036638 0.3431852 -0.52652025 -0.73164356 1.3294598 0.85145783 0.27122235 0.069551356 0.022884045 -0.8895919 -0.14246464 -0.17354134 1.5507524 -0.022720387 0.34777084 -0.22654332 0.4156861 0.035243597 0.7514429 0.6860026 0.42823368 1.2312348 -0.43297967 -0.30809173 -0.14137214 -0.68531257 0.0039282395 -1.1766694 0.33317977 -0.20063132 0.6354435 -0.0063782563 -0.5807615 1.0635474 -0.011745084 0.13070521 0.10415431 -0.20195566 -1.8697277 1.0728151 -0.44652188 0.72566646 -0.42295954 0.09594758 -0.46722603 0.5488436 1.6180948 0.3960054 -0.031092754 0.004268216 0.19057386 0.32195246 -1.4492402 0.073738165 0.17821193 0.16919188 0.65727186 -0.14699382 0.34536803 -0.0516884 -0.70505846 -0.9321371 -0.26376086 -0.13717723 0.65067446 0.7279478 0.75537664 -0.48529112 0.19409066 0.23222218 1.023475 0.17072293 0.038811296 -0.41624865 -1.4178512 -0.06944322 -0.8717985 -0.19605055 -0.6538257 0.15466999 0.31217104 0.7793129 0.032877732 0.95462215 0.19135892 0.08149293 0.45504358 -0.02658702 -0.7360813 -0.02137933 -0.11478496 -1.3814559 -0.6027609 0.9137761 -1.4250726 -0.72018 
http://dbpedia.org/resource/East_Sussex -0.5977927 -0.10607503 -0.2835992 0.07246887 -0.23654297 0.51487947 0.3491052 -0.25320205 -0.29333368 -0.55960906 -0.9682841 0.010268533 1.070051 1.2058821 -0.07055257 0.32354397 0.047529034 0.80193603 0.9730447 0.09790562 -0.27872068 0.5708502 0.5923097 0.6936855 1.396937 -0.50683206 -0.3052494 0.37635025 -0.012300624 0.46278065 0.46368697 0.4845893 0.58464915 -0.7151749 0.51124626 -0.5108059 -0.102271974 0.044720624 0.051033925 0.6692796 0.35846284 0.256507 -0.3526136 0.29826257 0.25532484 -0.06562994 -1.0274371 -0.45613077 0.29924214 0.95429856 -0.41464522 0.605788 0.49468517 -0.50989735 0.3151406 0.76540315 -0.3369087 0.98270726 -0.47915834 -0.07102923 0.6687967 -0.29755622 -0.26380667 0.857135 0.095792904 -0.6545253 -0.91368747 0.59847426 0.8445539 0.5409729 0.28571686 -0.36451176 -0.19340768 0.30742037 -0.0028234979 0.35602427 -0.30576524 -0.789532 -0.099601656 -0.3105038 0.64598984 -0.5133906 0.13797572 1.046077 -0.47912118 0.47484618 0.46684742 0.23174804 -0.35442358 -0.6532898 -0.6365999 -0.13013835 -0.8993888 0.08416676 -0.3448171 0.5303252 0.13652344 1.1132276 0.39022958 0.13411649 -0.20334773 0.12796868 -1.2563056 -0.7851659 0.47733814 0.2974343 0.011728328 -0.10802899 1.2036223 1.0762287 0.20755462 0.47797236 0.1724441 -0.4500407 -0.14239164 0.3421327 1.6271827 -0.14204003 0.70518786 0.04035797 -0.17554253 0.33920375 0.74403805 0.28624305 0.6285183 0.9324536 -0.3910059 0.25030717 -0.37546024 -0.5582521 0.28963113 -1.916948 -0.09934987 0.09551483 1.0213214 -0.2947706 -0.64619875 1.0019023 -0.41937968 0.14789833 0.4694147 0.32271624 -1.7605528 1.1660652 -1.1487684 0.95253587 -0.32409698 -0.05293405 0.049717467 1.4098983 1.0105056 -0.27607697 -0.65520644 -0.05487617 0.5719694 -0.24754754 -1.041437 -0.25416517 -0.5928285 -0.109767266 0.23658757 -0.079821736 0.9465438 0.48525664 -0.4272957 -0.93448126 -0.57436466 -0.48236793 0.77093893 0.36533198 0.25141877 -0.53751904 0.08751397 -0.21886544 0.56239486 0.3438678 0.39616162 0.037759427 -0.7082476 0.42652184 -0.42184013 -0.30512476 -1.0677553 0.40742943 -0.22598629 0.006700795 0.21844572 0.8183388 -0.19028178 0.00541095 0.0752359 -0.13687208 -0.48095623 -0.49055186 -0.5479635 -1.1167256 -0.84240156 1.4289522 -1.5319928 -0.013251826 
http://dbpedia.org/resource/Surrey -0.3197733 -0.04263952 -0.20873795 -0.04429877 0.62281346 0.9382501 0.19842543 0.24378473 0.1350488 0.007477401 -0.8675909 0.19465293 1.3160328 0.58280456 -0.14027344 0.1032599 0.38694352 0.54274756 0.9642287 -0.14363405 0.6271882 0.23035781 0.20890741 0.8751634 0.4964966 -0.08665775 -0.14710283 -0.10799977 -1.0505029 0.5359583 1.1918559 0.38332585 0.15549003 -0.68445 0.3016082 -0.5202708 -0.020440362 -0.064141706 -0.3050713 0.6797387 0.3479641 0.5541999 -0.6837107 0.6451573 -0.020414514 -0.9009906 -0.9442428 -0.67487156 -0.1036628 1.1806331 -0.25126258 0.67921746 0.57446253 0.28580955 0.39905113 0.8309214 -0.37790155 0.5521311 -0.34075058 0.37638953 0.30638427 -0.47323915 -0.45943058 0.73236996 0.18733892 0.10919898 -0.81632066 0.5449047 0.9384827 -0.0998642 0.6330698 0.04074857 -0.57209754 -0.038625877 -0.15652601 1.2506926 -1.2629752 -1.1830045 -0.25197878 0.19902118 0.78834605 -0.756281 0.32283935 1.0204123 0.14652278 -0.4205566 0.32634535 0.58037126 -0.48022485 -0.19130443 -1.0284922 -0.4061822 -0.698439 0.22182886 -0.06938357 0.40985584 -0.4663695 0.8015158 0.17135745 0.5456067 -0.3066067 0.29920942 -1.6085132 -1.0385888 0.7529982 0.16583385 -0.1286127 0.22956394 0.97660923 0.8975308 1.031609 0.0025672463 -0.20189019 -0.8721093 -0.18797545 0.058307216 1.3311794 0.042579558 0.20672299 0.28039342 -0.8121262 0.36797497 0.859105 0.6427846 0.9645717 0.200351 -0.98307717 0.0208702 0.3018877 -0.51675606 0.22505707 -1.5858791 -0.48633936 0.12154814 0.62346107 -0.18459654 -0.5796657 0.3537425 -0.19568305 0.2075262 0.27553317 -0.26108658 -1.9879705 1.102174 -1.1218328 1.02337 -0.24125466 0.48454875 -0.38233975 1.2925613 1.1940659 0.25219288 0.0592584 0.739599 0.9004778 -0.4225366 -0.6635451 0.049203537 -0.2523411 -0.32923532 -0.286326 0.21223964 0.3195119 0.046925113 0.1910179 -0.64865255 -0.21726461 -0.3575788 0.44225845 0.554655 -0.15527219 -0.020156074 0.27761146 0.7525851 0.49994403 0.42546532 0.18087558 -0.34701085 -0.9493531 0.72222435 -0.526729 0.4005767 -0.9140402 0.3739888 0.14510638 -0.11066272 0.011108039 0.6693753 0.42063814 0.30248857 0.71155417 -0.052325357 -0.37274116 -0.18883744 -0.66927963 -1.4639387 -0.40854454 1.0558397 -1.0689151 0.05005115 
http://dbpedia.org/ontology/Settlement 0.20308538 -0.3215421 -0.27637103 -0.5033271 0.713238 -0.6029854 -0.21587864 -0.105472565 0.17887445 -0.0055896402 0.7523638 -0.06776454 0.24903895 -0.32226518 -0.31317368 -0.15371102 0.1529447 0.8879338 0.064831436 0.62429327 -0.05338292 -0.025350554 0.25468647 0.29566225 -0.35533765 0.2687031 -0.09791264 0.26662844 -0.22391579 -0.7952193 0.61812794 -0.15905978 0.3299041 -0.558381 0.02564511 -0.21305901 -0.29592845 -0.050259657 0.8470824 0.77710265 0.36293975 1.0087732 0.024702024 0.041343715 -0.5588714 -0.24764639 -0.28833595 0.08160065 0.31420752 0.82342434 -0.061679125 0.103843644 0.22836204 -0.08195246 -0.15332879 0.056776695 -0.07742322 0.64530873 -0.12573463 0.24417712 -0.750719 0.25339064 -0.858714 -0.78605986 0.5899684 -0.017207958 -0.20551106 -0.032856606 1.1899666 0.77274555 0.2981307 0.31780106 0.0786563 -0.03448531 -0.4426571 -0.2876511 -0.61184824 0.15697387 0.20962498 -0.5116357 0.22138532 -0.41751823 0.38211292 0.35353786 -0.05739243 0.18266715 0.66416687 -0.42734647 -0.67029226 -0.5308524 -0.38556165 -0.61136764 -0.34728366 0.39908344 -0.6680634 -0.070887655 -0.1635761 0.29015177 -0.2260121 0.34678668 -0.07116263 0.7233786 -0.023768859 0.11327806 -0.19776912 0.6151293 0.23477143 0.12890713 0.2910293 0.6226529 -0.12736821 -0.29048377 -0.38429165 0.18971606 -0.40826598 0.29052103 0.21745174 0.97055435 -0.33632752 0.28500953 0.36161733 0.51727206 0.34590328 0.13745669 -0.7440926 -0.7764362 0.31096226 0.9829514 -0.12552887 0.19866367 0.96937793 0.06524154 0.19700587 0.29717144 1.2175546 0.42701542 0.066471264 0.15818352 0.8260743 -1.2829984 0.013174589 -0.015475368 0.87598675 0.18369037 0.27142504 0.43340743 -0.0681369 0.54161674 0.22945927 0.23873849 0.5517209 0.40214267 -0.1749098 0.09996145 -0.5747651 -0.12651923 0.24231124 -0.27824092 0.10210074 -0.18715882 1.082401 -0.43520743 -0.024500253 0.07248337 -0.47948086 -0.48160085 -0.30011228 0.41594005 0.20873591 -0.33311826 -0.17641369 -0.08482382 0.681902 0.74083924 0.20258951 -0.34885943 0.17295052 -0.23829319 0.006912226 0.3659711 -0.8019633 0.05899193 -0.051917482 0.16628318 0.41509902 0.15704298 -0.112118095 0.12096418 0.08097471 0.14216274 -0.14752726 0.24893346 -0.62384623 -0.121315986 0.02082522 -0.32826558 -0.14777051 -0.3780341 -0.7282593 0.04813946 
http://dbpedia.org/resource/Non-metropolitan_district -0.48899636 0.004153022 0.7020992 0.28364387 0.70886153 -0.15970613 -0.051660832 -0.066001914 1.2597227 0.5779552 -0.4491111 -0.45138058 1.4569905 0.5331339 0.20317273 0.08566646 0.6351109 1.6612276 0.31195995 -0.33315417 1.2398411 1.1326882 0.4325895 0.6309616 0.8892948 0.56566864 -1.2122965 0.59600824 -0.59684217 0.37828767 0.5067896 0.9326527 -0.010653147 -1.1683189 -0.189551 -1.5509459 0.704554 0.8461899 0.8310927 0.31426063 -0.4467205 0.059365187 -2.2472572 0.07552103 -0.9436342 -0.061201926 0.49355593 0.18529336 0.7199109 0.30563197 -0.9511032 0.8779344 -0.40064293 0.3351439 -0.6160473 0.7857825 -0.9573285 0.39210296 -0.27938902 0.4579797 -0.3053705 0.5680863 -1.0170816 -0.021474259 0.30535755 -0.774024 -0.82342094 0.9431838 0.72856647 0.5921481 0.1221591 0.15651704 0.071324445 -1.1787326 -0.1846144 0.22083579 -0.13692357 -0.34281868 0.6931984 -0.79163325 0.0017558588 -0.43585956 -0.311798 -0.3732174 -0.65028656 0.3995747 -0.0556711 -0.043051835 0.50890154 -1.1491691 -0.2137336 -0.2317802 -1.0810996 0.48901433 -0.33016607 -0.2015979 -0.031772617 0.4997758 0.40019828 0.3583488 -0.3388431 0.37955517 -1.4719225 -1.0983902 0.004974951 0.6915471 -0.6016693 -0.67279375 -0.056369007 0.039942794 0.13028425 0.2784566 0.5253408 -0.16396905 0.73430544 -0.76438946 0.5028833 0.3020319 0.9344757 0.91896755 -0.4857238 -0.03571771 -0.46732196 0.3005533 0.3390704 0.87134063 -0.06117868 0.3670639 -0.00765309 0.3729519 0.46559575 -0.5046893 0.38144276 -0.09092527 1.0307053 0.167881 -0.613146 0.64707786 0.6257965 -0.558911 0.011294934 0.20626475 -0.2507246 0.05821235 -0.52954656 0.34166965 -0.5996023 1.2471855 -0.48021847 0.4181919 0.78810513 0.6494375 -0.92389625 0.8094946 0.31730986 0.073984064 -0.42852563 -0.42427847 -0.10978903 0.013311954 0.15728052 -0.45740986 0.14242135 -0.6924242 0.5322312 0.067209415 -0.06178645 0.2126013 -0.35625598 0.12018125 0.19882596 -0.4554522 0.8875269 -0.22548844 -0.5170029 0.7727542 0.08493229 -0.61421144 -0.01609996 0.44786954 -1.2268714 -0.22249584 0.30969584 0.11851191 0.46122673 -0.34594664 0.04050405 0.58237153 -0.60029346 0.17055811 0.27214128 -0.099899456 -0.99539685 -0.1990205 -0.08800713 -0.39409432 -0.22967894 0.8973038 -1.1094908 -0.008780357 
http://en.wikipedia.org/wiki/Non-metropolitan_district -0.48884493 0.14119908 0.39335424 0.53914255 0.49531814 -0.39231592 -0.40776354 -0.3011217 0.8984064 0.5073186 -0.525018 -0.5923539 0.91765684 0.30474535 -0.0672147 -0.0017020645 0.31987837 1.0907762 0.006776924 -0.77563584 0.9528631 1.0839324 0.517567 0.714793 0.46757784 0.51216024 -1.354853 0.7383308 -0.24839903 0.88331866 0.44725654 0.19295992 0.22993553 -1.4197053 0.5699941 -1.410751 0.293043 0.9950718 0.59531856 0.28528598 -0.8150132 0.5226253 -1.7029147 0.32911927 -0.598212 -0.1180189 -0.000365219 0.044543542 1.2322947 0.25208426 -1.0158255 0.7213528 0.16858423 0.2767997 0.52793807 0.622037 -0.8995198 0.3403888 -0.6055517 0.29610193 -0.2980404 0.27297688 -0.8239844 -0.66606414 0.15433076 -0.58513147 -0.011022224 0.4321484 0.41429645 0.19930406 0.60121495 -0.2688962 -0.28600228 -0.6878893 0.37071678 -0.20114131 -0.2690206 0.17057672 1.0238434 -0.75041354 -0.07084268 -0.1945 -0.060223423 0.16496655 -0.466726 0.82531077 0.20643085 -0.37319472 0.61719644 -0.4489008 0.16378205 -1.1166672 -0.5804007 0.7723702 -0.21849035 -0.4100994 -0.007621115 0.7215196 0.19533351 0.14016144 -0.034090035 0.20304142 -1.2449535 -0.25573707 0.12485652 0.7014731 -0.3899999 -1.006875 0.12322929 -0.0011285415 0.043022774 -0.06451477 0.37419176 -0.49915695 0.67024666 -0.9800427 0.18369913 -0.07038677 0.09127973 1.4658198 -0.42323217 -0.04485286 -0.53106415 0.60978997 0.5370378 0.6114399 0.24657914 0.014536335 -0.21744847 -0.11804596 -0.086665854 0.50445473 0.008987581 -0.5076794 0.4963112 0.80856425 -0.10694945 0.23245615 0.6441846 -0.35214245 0.3020312 0.5062949 -0.16355847 0.051211864 -0.7928233 0.5996288 -0.87916136 1.5638903 -0.24473655 0.29520047 0.3774479 0.42235434 -0.8966924 0.20277393 -0.0055790767 -0.08364176 -0.088615194 0.55705714 -0.26251534 0.38620862 -0.29887798 -0.3514455 0.44508556 -0.7155921 0.95306146 -0.13183334 -0.52305156 -0.14661275 -0.3355863 0.18271992 0.06615925 -0.3657959 1.6743075 -0.396972 -0.38835508 0.8137173 -0.2584027 -0.41413704 0.14344257 0.70952904 -1.2879549 -0.31734592 0.54929566 -0.2592789 0.62306905 -0.19655669 -0.10906317 0.2877662 0.08007465 0.17035984 0.102237836 0.091252044 -0.7116685 -0.27618763 0.38431725 -0.19414888 -0.011216873 0.53841406 -1.0546753 -0.07135001 
http://dbpedia.org/resource/Hampshire -0.011192917 -0.27466553 -0.041564252 -0.039342433 1.0999569 0.9466029 0.3841217 0.48216185 0.43627238 -0.60810626 -0.7745489 0.49008122 1.1980811 0.27647388 0.039757658 0.21215604 1.2614357 0.75791276 1.2127525 -0.06521814 0.5128911 -0.09528893 0.1314015 -0.09476654 0.39352104 0.42553192 0.33987647 -0.12444728 -0.32070437 1.1318944 0.91992563 0.24146725 0.46404347 -0.9541484 0.15715328 -0.7600026 0.08486839 0.16076072 -0.37759134 1.0293183 -0.39144596 0.3753662 -0.07065579 -0.15867445 -0.61141074 -0.44535857 -0.5813121 -0.7726219 0.0060052276 0.6455839 0.0045345174 -0.2615708 0.47100046 0.36883184 0.4019591 0.8640069 -0.538948 0.73841846 -0.49652144 0.526238 -0.07134121 -0.5563506 -0.8387742 0.7661767 -0.020127902 -0.10529636 -0.8917222 0.17439519 0.36977866 1.6348656 0.24333414 -0.17794268 -0.15796982 -0.5178774 0.059637364 0.8254993 0.052419145 -0.86472386 -0.6098757 0.3221498 0.74725205 -0.9936318 0.07178938 0.31172544 -0.3076055 -0.067789696 0.5023599 -0.21391936 -1.1573035 -0.72343564 -0.71772563 -0.21316819 -0.24272463 -0.4676264 -0.043992445 0.86374545 0.23062366 0.60089517 -0.040659916 -0.30289993 0.42383426 0.33695772 -1.7126985 -1.2036839 0.39924404 -0.14576474 0.0045451103 0.022769906 1.3056215 0.9170785 0.3932819 0.13584018 0.07748974 -1.1230934 0.47971222 -0.46381563 1.6694111 0.11519558 0.1262124 0.36742586 -0.17601715 0.33040458 0.87807834 1.1089276 0.59273666 1.1631415 -0.9449554 0.109313175 0.020331152 -0.29946297 0.33604723 -0.9944832 -0.12303501 0.096833125 1.4714248 0.14462519 -0.7385634 0.8696796 -0.42677343 -0.13055839 -0.35842937 -0.7510816 -1.6893456 0.7183214 -0.74183905 0.51156867 -0.031205492 0.583461 -0.21966578 1.6781282 0.82199407 0.8919445 -0.075286955 0.7813559 0.34457567 0.004529282 -0.51878875 0.042585336 -0.5157931 -0.07001627 0.23552209 -0.6840141 0.4797494 0.13824278 -0.6265243 -0.5992423 -0.22678061 -0.2965862 0.2512177 0.31068373 0.037374485 0.13864449 0.0047349767 0.2773027 0.38098773 0.15272474 0.52157253 -0.91108024 -1.1399808 0.27055767 -0.6714449 -0.1557064 -0.73939663 -0.036666322 0.8803794 0.07629363 -0.20236532 0.6103333 0.20003238 0.16434646 0.37344524 -0.3845151 -0.11544952 -0.081469014 -0.5441707 -1.1290364 -0.67767495 0.6622952 -1.1749423 -0.35413104 
http://dbpedia.org/property/mps -0.13859062 -0.3410804 -0.027402643 -0.67966306 1.0308535 0.48959714 -0.161908 0.533196 -0.0532658 -0.44421872 -1.2054583 0.26557198 0.964116 0.70815194 -0.19266833 -0.11791101 0.6985568 0.42701936 0.44656977 0.2539916 0.92900115 0.619382 -0.8413722 0.5983969 1.1401215 0.4084458 -0.3888164 -0.0060280557 0.23828444 0.10794852 0.34622747 0.5990089 -0.07177486 -0.09088415 0.19481245 -0.91714585 0.24194372 -0.09711472 0.33755094 0.4137713 0.19479449 0.6139421 -0.75919473 -0.030930877 0.5135695 -1.0593524 -0.4265259 -0.6015586 0.7641551 0.66910684 -0.13895302 0.19988343 -0.0030730106 -0.22252522 -0.4156446 0.38097888 -0.94759464 0.4897873 -0.23565225 0.08914977 0.19984679 -0.15412591 -1.187743 0.37201855 -0.7645242 0.20517443 -0.4189332 -0.028573059 1.1532623 0.5671684 0.56533575 -0.66067976 -0.09871646 -0.47589236 -0.48680738 -0.11649397 0.21680315 -0.09495893 -0.55132127 0.14501186 0.3865009 -0.461989 -0.5226602 0.36429074 -0.11779142 -0.31669003 0.30853295 -0.74519306 -0.082279645 0.25881374 -1.1780615 -0.5204604 -0.15568954 0.6567831 -0.8050908 -0.69918734 -0.15503171 0.6533636 -0.37972477 -0.09746425 0.062425267 0.25960076 -0.8257649 -0.50162345 0.66031986 0.56330264 -0.54833335 0.64129114 -0.0833726 0.2470252 0.21359074 0.55159307 -0.12454991 0.0132845845 0.18724273 -0.2978408 0.704266 1.0740993 0.27199975 -0.08975178 0.029861309 0.11102552 -0.15583517 0.5239456 0.21973439 0.65459174 -0.31137374 0.25084078 -0.08804855 -0.25534344 -0.13571848 -0.52329385 0.54841495 0.2394641 0.63365054 0.2384893 0.054350525 0.52727276 0.09319961 -0.69690144 -1.1447664 0.3007718 -0.53305626 0.22180097 -0.8858697 1.391944 -0.013814054 0.17600724 -0.41246128 0.10202861 0.43592006 0.7298799 -0.27699438 0.67605144 0.52877396 -0.5441535 -0.48650432 0.28294125 -0.74146235 -0.035424802 0.18528353 -0.08673403 1.4168152 0.47091788 0.24293707 -0.9151939 -0.43487442 0.1702903 -0.35934067 0.17337072 -0.025029326 -0.6340527 0.3369655 0.26062602 0.41807917 0.7804822 0.48399448 -0.5057645 -0.3634183 0.87076813 -0.5230215 0.15839371 -0.43325263 -0.18434072 0.40832222 0.14609703 -0.4773535 0.1487823 -0.48551446 0.079482876 0.62167156 -0.07116591 0.49145922 0.5306703 -0.40138018 -0.65879095 -0.3427773 0.56661236 -0.58507586 -0.07102746 
http://dbpedia.org/resource/List_of_Parliamentary_constituencies_in_Hampshire -0.08961365 -0.0309475 0.74003035 0.14811958 0.7329123 0.3034952 -0.47334978 0.4014001 -0.033629697 -0.58914953 -1.0799868 0.14112419 1.0991416 1.117523 0.06790068 0.014793376 1.3064407 0.64628327 1.0650991 0.06794602 0.6511394 0.5446579 -0.06942925 0.42151475 0.5952101 0.5765378 -0.14825687 0.19090222 0.47157407 1.2791387 0.75202626 0.104889564 0.106941484 -0.6491131 0.27933007 -1.2400582 -0.45471293 0.41213316 0.054309007 0.8129365 -0.10614912 0.059469927 -0.30480742 -0.051401276 -0.33988205 -0.46344367 -0.12423676 -0.61777824 0.47886074 1.0520322 -0.113286614 -0.13809904 0.8987988 0.63249546 0.66245854 0.35352713 -0.5165273 0.5218322 -0.749567 0.45814565 0.06508472 -0.35214615 -0.5015122 0.65095 -0.5640616 0.0066605443 0.41708195 -0.071851455 0.43842468 0.97174394 0.5150565 -0.8546988 -0.25971314 -0.33533877 0.4179102 0.20783043 0.47720143 -0.094039366 -0.20805657 0.8171881 0.63203245 -0.6488322 -0.07662571 0.21283865 -0.24411458 0.17436023 0.83199656 -0.5342785 -0.32100496 0.33815035 -0.8426278 -0.49837458 -0.11870944 -0.20208949 -0.4542886 -0.1456513 0.25840586 0.7577977 -0.30145818 -0.68378013 0.86888665 -0.045723733 -0.9236317 -0.75060576 0.5776244 0.24599415 0.10615935 0.277664 0.69148594 0.50945747 0.22142144 0.44697782 0.27370635 -0.29113823 0.76022977 -1.1257682 0.95711577 1.189473 0.929021 0.51656693 -0.2523174 0.6201351 0.5461687 1.1085901 0.34328154 0.47173968 -0.9725777 -0.22601588 -0.1011517 -0.53852403 -0.13315652 0.3881557 0.14778839 -0.27739164 1.2532419 0.8231698 0.28220704 0.6086639 -0.057504497 -0.60342777 -0.119250685 -0.4391202 -0.7295954 0.44533452 -0.839239 0.592938 0.23268163 0.74956036 0.102373205 0.7441001 0.28496554 0.25825897 -0.47942424 1.1432402 0.8361028 -0.41882825 -0.4815097 0.2522927 -0.4755468 0.2408529 -0.38013607 -0.5368838 1.0738461 0.08647637 -0.14982228 -0.61622584 -0.34822857 -0.254593 0.07509438 0.506394 -0.24293236 -0.0051762955 0.79848367 -0.031316977 -0.07139849 0.4173527 0.07407515 -0.88490635 -1.1866773 0.55555075 -0.6467742 -0.7394054 -0.22410175 -0.36056778 0.7691174 0.53254884 -0.23973179 0.63634336 0.21704538 0.11511325 0.73758084 -0.07096145 -0.04345347 -0.14426897 -0.3836026 -0.6321867 -0.2992875 0.88595825 -0.9448509 0.065650396 
